digraph Tree {
node [shape=box] ;
0 [label="X[0] <= 42.5\nmse = 148615380.701\nsamples = 936\nvalue = 13276.699"] ;
1 [label="X[1] <= 29.62\nmse = 130082738.205\nsamples = 542\nvalue = 10376.106"] ;
0 -> 1 [labeldistance=2.5, labelangle=45, headlabel="True"] ;
2 [label="X[0] <= 41.5\nmse = 51802536.663\nsamples = 255\nvalue = 8086.677"] ;
1 -> 2 ;
3 [label="X[0] <= 26.5\nmse = 47166503.979\nsamples = 247\nvalue = 7773.502"] ;
2 -> 3 ;
4 [label="X[1] <= 27.182\nmse = 50029617.741\nsamples = 115\nvalue = 6330.794"] ;
3 -> 4 ;
5 [label="X[3] <= 0.5\nmse = 38048267.587\nsamples = 81\nvalue = 5244.195"] ;
4 -> 5 ;
6 [label="X[4] <= 0.5\nmse = 48105173.455\nsamples = 38\nvalue = 6630.572"] ;
5 -> 6 ;
7 [label="X[0] <= 19.0\nmse = 112756327.542\nsamples = 6\nvalue = 12546.971"] ;
6 -> 7 ;
8 [label="X[1] <= 22.44\nmse = 88086.382\nsamples = 2\nvalue = 1904.304"] ;
7 -> 8 ;
9 [label="mse = 0.0\nsamples = 1\nvalue = 1607.51"] ;
8 -> 9 ;
10 [label="mse = 0.0\nsamples = 1\nvalue = 2201.097"] ;
8 -> 10 ;
11 [label="X[1] <= 22.55\nmse = 84140667.064\nsamples = 4\nvalue = 17868.305"] ;
7 -> 11 ;
12 [label="mse = 0.0\nsamples = 1\nvalue = 3180.51"] ;
11 -> 12 ;
13 [label="X[2] <= 0.5\nmse = 16306968.841\nsamples = 3\nvalue = 22764.237"] ;
11 -> 13 ;
14 [label="X[0] <= 22.0\nmse = 272435.42\nsamples = 2\nvalue = 25603.721"] ;
13 -> 14 ;
15 [label="mse = 0.0\nsamples = 1\nvalue = 26125.675"] ;
14 -> 15 ;
16 [label="mse = 0.0\nsamples = 1\nvalue = 25081.768"] ;
14 -> 16 ;
17 [label="mse = -0.0\nsamples = 1\nvalue = 17085.268"] ;
13 -> 17 ;
18 [label="X[1] <= 22.467\nmse = 28189271.059\nsamples = 32\nvalue = 5521.247"] ;
6 -> 18 ;
19 [label="X[1] <= 21.47\nmse = 40723149.084\nsamples = 15\nvalue = 7869.178"] ;
18 -> 19 ;
20 [label="X[1] <= 17.297\nmse = 15556746.761\nsamples = 8\nvalue = 4238.673"] ;
19 -> 20 ;
21 [label="mse = 0.0\nsamples = 1\nvalue = 14455.644"] ;
20 -> 21 ;
22 [label="X[2] <= 0.5\nmse = 736444.821\nsamples = 7\nvalue = 2779.105"] ;
20 -> 22 ;
23 [label="X[4] <= 2.0\nmse = 142036.765\nsamples = 3\nvalue = 1994.834"] ;
22 -> 23 ;
24 [label="X[1] <= 18.2\nmse = 0.309\nsamples = 2\nvalue = 1728.341"] ;
23 -> 24 ;
25 [label="mse = 0.0\nsamples = 1\nvalue = 1727.785"] ;
24 -> 25 ;
26 [label="mse = 0.0\nsamples = 1\nvalue = 1728.897"] ;
24 -> 26 ;
27 [label="mse = 0.0\nsamples = 1\nvalue = 2527.819"] ;
23 -> 27 ;
28 [label="X[2] <= 2.0\nmse = 374955.285\nsamples = 4\nvalue = 3367.309"] ;
22 -> 28 ;
29 [label="X[0] <= 23.0\nmse = 116398.063\nsamples = 3\nvalue = 3057.655"] ;
28 -> 29 ;
30 [label="mse = 0.0\nsamples = 1\nvalue = 2585.269"] ;
29 -> 30 ;
31 [label="X[0] <= 25.5\nmse = 7235.459\nsamples = 2\nvalue = 3293.848"] ;
29 -> 31 ;
32 [label="mse = 0.0\nsamples = 1\nvalue = 3208.787"] ;
31 -> 32 ;
33 [label="mse = -0.0\nsamples = 1\nvalue = 3378.91"] ;
31 -> 33 ;
34 [label="mse = 0.0\nsamples = 1\nvalue = 4296.271"] ;
28 -> 34 ;
35 [label="X[1] <= 21.993\nmse = 37205808.591\nsamples = 7\nvalue = 12018.327"] ;
19 -> 35 ;
36 [label="X[0] <= 19.5\nmse = 6335060.957\nsamples = 4\nvalue = 15913.601"] ;
35 -> 36 ;
37 [label="X[1] <= 21.68\nmse = 48170.022\nsamples = 2\nvalue = 14063.983"] ;
36 -> 37 ;
38 [label="mse = 0.0\nsamples = 1\nvalue = 14283.459"] ;
37 -> 38 ;
39 [label="mse = -0.0\nsamples = 1\nvalue = 13844.506"] ;
37 -> 39 ;
40 [label="X[0] <= 20.5\nmse = 5779772.612\nsamples = 2\nvalue = 17763.22"] ;
36 -> 40 ;
41 [label="mse = 0.0\nsamples = 1\nvalue = 20167.336"] ;
40 -> 41 ;
42 [label="mse = -0.0\nsamples = 1\nvalue = 15359.104"] ;
40 -> 42 ;
43 [label="X[0] <= 20.5\nmse = 31161405.337\nsamples = 3\nvalue = 6824.627"] ;
35 -> 43 ;
44 [label="mse = 0.0\nsamples = 1\nvalue = 14711.744"] ;
43 -> 44 ;
45 [label="X[4] <= 2.5\nmse = 87153.978\nsamples = 2\nvalue = 2881.069"] ;
43 -> 45 ;
46 [label="mse = 0.0\nsamples = 1\nvalue = 2585.851"] ;
45 -> 46 ;
47 [label="mse = 0.0\nsamples = 1\nvalue = 3176.288"] ;
45 -> 47 ;
48 [label="X[2] <= 1.5\nmse = 7973791.588\nsamples = 17\nvalue = 3449.543"] ;
18 -> 48 ;
49 [label="X[0] <= 23.0\nmse = 157283.492\nsamples = 13\nvalue = 2517.063"] ;
48 -> 49 ;
50 [label="X[2] <= 0.5\nmse = 56374.913\nsamples = 8\nvalue = 2269.309"] ;
49 -> 50 ;
51 [label="X[1] <= 23.74\nmse = 46813.311\nsamples = 7\nvalue = 2222.384"] ;
50 -> 51 ;
52 [label="X[1] <= 22.847\nmse = 94425.101\nsamples = 2\nvalue = 2424.626"] ;
51 -> 52 ;
53 [label="mse = 0.0\nsamples = 1\nvalue = 2117.339"] ;
52 -> 53 ;
54 [label="mse = -0.0\nsamples = 1\nvalue = 2731.912"] ;
52 -> 54 ;
55 [label="X[0] <= 19.5\nmse = 4863.715\nsamples = 5\nvalue = 2141.488"] ;
51 -> 55 ;
56 [label="X[1] <= 25.698\nmse = 0.737\nsamples = 2\nvalue = 2197.332"] ;
55 -> 56 ;
57 [label="mse = 0.0\nsamples = 1\nvalue = 2196.473"] ;
56 -> 57 ;
58 [label="mse = -0.0\nsamples = 1\nvalue = 2198.19"] ;
56 -> 58 ;
59 [label="X[0] <= 21.5\nmse = 4640.654\nsamples = 3\nvalue = 2104.258"] ;
55 -> 59 ;
60 [label="mse = 0.0\nsamples = 1\nvalue = 2007.945"] ;
59 -> 60 ;
61 [label="X[1] <= 25.7\nmse = 3.787\nsamples = 2\nvalue = 2152.415"] ;
59 -> 61 ;
62 [label="mse = 0.0\nsamples = 1\nvalue = 2150.469"] ;
61 -> 62 ;
63 [label="mse = -0.0\nsamples = 1\nvalue = 2154.361"] ;
61 -> 63 ;
64 [label="mse = -0.0\nsamples = 1\nvalue = 2597.779"] ;
50 -> 64 ;
65 [label="X[1] <= 22.605\nmse = 63386.425\nsamples = 5\nvalue = 2913.471"] ;
49 -> 65 ;
66 [label="mse = 0.0\nsamples = 1\nvalue = 2457.502"] ;
65 -> 66 ;
67 [label="X[1] <= 23.418\nmse = 14261.926\nsamples = 4\nvalue = 3027.463"] ;
65 -> 67 ;
68 [label="mse = 0.0\nsamples = 1\nvalue = 3176.816"] ;
67 -> 68 ;
69 [label="X[1] <= 24.748\nmse = 9101.994\nsamples = 3\nvalue = 2977.679"] ;
67 -> 69 ;
70 [label="mse = 0.0\nsamples = 1\nvalue = 2842.761"] ;
69 -> 70 ;
71 [label="X[1] <= 25.935\nmse = 0.854\nsamples = 2\nvalue = 3045.138"] ;
69 -> 71 ;
72 [label="mse = 0.0\nsamples = 1\nvalue = 3044.213"] ;
71 -> 72 ;
73 [label="mse = 0.0\nsamples = 1\nvalue = 3046.062"] ;
71 -> 73 ;
74 [label="X[1] <= 23.29\nmse = 21367219.956\nsamples = 4\nvalue = 6480.102"] ;
48 -> 74 ;
75 [label="mse = 0.0\nsamples = 1\nvalue = 14426.074"] ;
74 -> 75 ;
76 [label="X[1] <= 23.85\nmse = 428084.901\nsamples = 3\nvalue = 3831.445"] ;
74 -> 76 ;
77 [label="mse = 0.0\nsamples = 1\nvalue = 2913.569"] ;
76 -> 77 ;
78 [label="X[2] <= 2.5\nmse = 10255.502\nsamples = 2\nvalue = 4290.383"] ;
76 -> 78 ;
79 [label="mse = 0.0\nsamples = 1\nvalue = 4189.113"] ;
78 -> 79 ;
80 [label="mse = -0.0\nsamples = 1\nvalue = 4391.652"] ;
78 -> 80 ;
81 [label="X[2] <= 1.5\nmse = 25961179.183\nsamples = 43\nvalue = 4019.025"] ;
5 -> 81 ;
82 [label="X[1] <= 19.257\nmse = 19971159.921\nsamples = 33\nvalue = 3265.967"] ;
81 -> 82 ;
83 [label="X[1] <= 18.097\nmse = 71981203.637\nsamples = 4\nvalue = 6921.678"] ;
82 -> 83 ;
84 [label="X[2] <= 0.5\nmse = 278225.012\nsamples = 3\nvalue = 2030.443"] ;
83 -> 84 ;
85 [label="X[1] <= 16.72\nmse = 1348.953\nsamples = 2\nvalue = 1658.068"] ;
84 -> 85 ;
86 [label="mse = 0.0\nsamples = 1\nvalue = 1694.796"] ;
85 -> 86 ;
87 [label="mse = 0.0\nsamples = 1\nvalue = 1621.34"] ;
85 -> 87 ;
88 [label="mse = -0.0\nsamples = 1\nvalue = 2775.192"] ;
84 -> 88 ;
89 [label="mse = 0.0\nsamples = 1\nvalue = 21595.382"] ;
83 -> 89 ;
90 [label="X[0] <= 18.5\nmse = 10699765.619\nsamples = 29\nvalue = 2761.731"] ;
82 -> 90 ;
91 [label="X[1] <= 22.278\nmse = 27225066.265\nsamples = 10\nvalue = 4233.323"] ;
90 -> 91 ;
92 [label="X[1] <= 21.517\nmse = 36273017.977\nsamples = 2\nvalue = 7725.164"] ;
91 -> 92 ;
93 [label="mse = 0.0\nsamples = 1\nvalue = 1702.455"] ;
92 -> 93 ;
94 [label="mse = 0.0\nsamples = 1\nvalue = 13747.872"] ;
92 -> 94 ;
95 [label="X[1] <= 24.462\nmse = 21152780.401\nsamples = 8\nvalue = 3360.363"] ;
91 -> 95 ;
96 [label="X[4] <= 1.0\nmse = 54687.911\nsamples = 5\nvalue = 1589.559"] ;
95 -> 96 ;
97 [label="X[2] <= 0.5\nmse = 86775.285\nsamples = 2\nvalue = 1416.45"] ;
96 -> 97 ;
98 [label="mse = 0.0\nsamples = 1\nvalue = 1121.874"] ;
97 -> 98 ;
99 [label="mse = 0.0\nsamples = 1\nvalue = 1711.027"] ;
97 -> 99 ;
100 [label="X[1] <= 23.417\nmse = 0.221\nsamples = 3\nvalue = 1704.964"] ;
96 -> 100 ;
101 [label="X[1] <= 23.037\nmse = 0.004\nsamples = 2\nvalue = 1704.634"] ;
100 -> 101 ;
102 [label="mse = 0.0\nsamples = 1\nvalue = 1704.568"] ;
101 -> 102 ;
103 [label="mse = -0.0\nsamples = 1\nvalue = 1704.7"] ;
101 -> 103 ;
104 [label="mse = 0.0\nsamples = 1\nvalue = 1705.624"] ;
100 -> 104 ;
105 [label="X[1] <= 25.317\nmse = 42379616.73\nsamples = 3\nvalue = 6311.702"] ;
95 -> 105 ;
106 [label="mse = 0.0\nsamples = 1\nvalue = 15518.18"] ;
105 -> 106 ;
107 [label="X[1] <= 25.792\nmse = 0.214\nsamples = 2\nvalue = 1708.464"] ;
105 -> 107 ;
108 [label="mse = 0.0\nsamples = 1\nvalue = 1708.001"] ;
107 -> 108 ;
109 [label="mse = -0.0\nsamples = 1\nvalue = 1708.926"] ;
107 -> 109 ;
110 [label="X[0] <= 22.5\nmse = 262573.411\nsamples = 19\nvalue = 1987.208"] ;
90 -> 110 ;
111 [label="X[1] <= 21.227\nmse = 119236.38\nsamples = 11\nvalue = 1700.527"] ;
110 -> 111 ;
112 [label="X[1] <= 20.05\nmse = 0.262\nsamples = 3\nvalue = 1242.214"] ;
111 -> 112 ;
113 [label="mse = 0.0\nsamples = 1\nvalue = 1241.565"] ;
112 -> 113 ;
114 [label="X[1] <= 20.5\nmse = 0.077\nsamples = 2\nvalue = 1242.538"] ;
112 -> 114 ;
115 [label="mse = 0.0\nsamples = 1\nvalue = 1242.26"] ;
114 -> 115 ;
116 [label="mse = 0.0\nsamples = 1\nvalue = 1242.816"] ;
114 -> 116 ;
117 [label="X[4] <= 0.5\nmse = 55642.219\nsamples = 8\nvalue = 1872.395"] ;
111 -> 117 ;
118 [label="X[0] <= 21.5\nmse = 5599.132\nsamples = 2\nvalue = 1590.172"] ;
117 -> 118 ;
119 [label="mse = 0.0\nsamples = 1\nvalue = 1515.345"] ;
118 -> 119 ;
120 [label="mse = 0.0\nsamples = 1\nvalue = 1665.0"] ;
118 -> 120 ;
121 [label="X[1] <= 24.887\nmse = 36923.442\nsamples = 6\nvalue = 1966.469"] ;
117 -> 121 ;
122 [label="X[1] <= 21.877\nmse = 19361.414\nsamples = 3\nvalue = 1809.766"] ;
121 -> 122 ;
123 [label="mse = 0.0\nsamples = 1\nvalue = 1627.282"] ;
122 -> 123 ;
124 [label="X[1] <= 23.3\nmse = 4066.804\nsamples = 2\nvalue = 1901.008"] ;
122 -> 124 ;
125 [label="mse = 0.0\nsamples = 1\nvalue = 1964.78"] ;
124 -> 125 ;
126 [label="mse = 0.0\nsamples = 1\nvalue = 1837.237"] ;
124 -> 126 ;
127 [label="X[2] <= 0.5\nmse = 5374.129\nsamples = 3\nvalue = 2123.171"] ;
121 -> 127 ;
128 [label="X[0] <= 21.5\nmse = 800.309\nsamples = 2\nvalue = 2073.975"] ;
127 -> 128 ;
129 [label="mse = 0.0\nsamples = 1\nvalue = 2102.265"] ;
128 -> 129 ;
130 [label="mse = -0.0\nsamples = 1\nvalue = 2045.685"] ;
128 -> 130 ;
131 [label="mse = 0.0\nsamples = 1\nvalue = 2221.564"] ;
127 -> 131 ;
132 [label="X[2] <= 0.5\nmse = 191272.828\nsamples = 8\nvalue = 2381.395"] ;
110 -> 132 ;
133 [label="X[4] <= 1.5\nmse = 77875.555\nsamples = 7\nvalue = 2248.767"] ;
132 -> 133 ;
134 [label="X[1] <= 25.77\nmse = 32970.544\nsamples = 4\nvalue = 2057.195"] ;
133 -> 134 ;
135 [label="X[1] <= 23.27\nmse = 6777.109\nsamples = 2\nvalue = 2219.977"] ;
134 -> 135 ;
136 [label="mse = 0.0\nsamples = 1\nvalue = 2302.3"] ;
135 -> 136 ;
137 [label="mse = -0.0\nsamples = 1\nvalue = 2137.654"] ;
135 -> 137 ;
138 [label="X[0] <= 23.5\nmse = 6168.068\nsamples = 2\nvalue = 1894.413"] ;
134 -> 138 ;
139 [label="mse = 0.0\nsamples = 1\nvalue = 1815.876"] ;
138 -> 139 ;
140 [label="mse = 0.0\nsamples = 1\nvalue = 1972.95"] ;
138 -> 140 ;
141 [label="X[1] <= 25.365\nmse = 23571.714\nsamples = 3\nvalue = 2504.196"] ;
133 -> 141 ;
142 [label="X[1] <= 24.177\nmse = 0.214\nsamples = 2\nvalue = 2395.634"] ;
141 -> 142 ;
143 [label="mse = 0.0\nsamples = 1\nvalue = 2395.172"] ;
142 -> 143 ;
144 [label="mse = 0.0\nsamples = 1\nvalue = 2396.096"] ;
142 -> 144 ;
145 [label="mse = 0.0\nsamples = 1\nvalue = 2721.321"] ;
141 -> 145 ;
146 [label="mse = -0.0\nsamples = 1\nvalue = 3309.793"] ;
132 -> 146 ;
147 [label="X[0] <= 23.5\nmse = 37681148.291\nsamples = 10\nvalue = 6504.115"] ;
81 -> 147 ;
148 [label="X[0] <= 18.5\nmse = 10792580.89\nsamples = 6\nvalue = 4655.913"] ;
147 -> 148 ;
149 [label="X[1] <= 23.98\nmse = 22944322.161\nsamples = 2\nvalue = 7094.025"] ;
148 -> 149 ;
150 [label="mse = 0.0\nsamples = 1\nvalue = 11884.049"] ;
149 -> 150 ;
151 [label="mse = -0.0\nsamples = 1\nvalue = 2304.002"] ;
149 -> 151 ;
152 [label="X[2] <= 2.5\nmse = 258415.186\nsamples = 4\nvalue = 3436.856"] ;
148 -> 152 ;
153 [label="X[0] <= 20.0\nmse = 18686.569\nsamples = 2\nvalue = 2940.397"] ;
152 -> 153 ;
154 [label="mse = 0.0\nsamples = 1\nvalue = 2803.698"] ;
153 -> 154 ;
155 [label="mse = 0.0\nsamples = 1\nvalue = 3077.096"] ;
153 -> 155 ;
156 [label="X[1] <= 20.093\nmse = 5199.337\nsamples = 2\nvalue = 3933.316"] ;
152 -> 156 ;
157 [label="mse = 0.0\nsamples = 1\nvalue = 4005.422"] ;
156 -> 157 ;
158 [label="mse = 0.0\nsamples = 1\nvalue = 3861.21"] ;
156 -> 158 ;
159 [label="X[2] <= 2.5\nmse = 65204548.81\nsamples = 4\nvalue = 9276.42"] ;
147 -> 159 ;
160 [label="mse = 0.0\nsamples = 1\nvalue = 23241.475"] ;
159 -> 160 ;
161 [label="X[1] <= 26.747\nmse = 262617.107\nsamples = 3\nvalue = 4621.401"] ;
159 -> 161 ;
162 [label="X[4] <= 2.0\nmse = 10212.613\nsamples = 2\nvalue = 4979.039"] ;
161 -> 162 ;
163 [label="mse = 0.0\nsamples = 1\nvalue = 5080.096"] ;
162 -> 163 ;
164 [label="mse = 0.0\nsamples = 1\nvalue = 4877.981"] ;
162 -> 164 ;
165 [label="mse = -0.0\nsamples = 1\nvalue = 3906.127"] ;
161 -> 165 ;
166 [label="X[1] <= 28.12\nmse = 69059400.682\nsamples = 34\nvalue = 8919.458"] ;
4 -> 166 ;
167 [label="X[0] <= 19.5\nmse = 51163594.547\nsamples = 13\nvalue = 13062.365"] ;
166 -> 167 ;
168 [label="X[1] <= 27.273\nmse = 4717416.988\nsamples = 5\nvalue = 18547.717"] ;
167 -> 168 ;
169 [label="mse = 0.0\nsamples = 1\nvalue = 22493.66"] ;
168 -> 169 ;
170 [label="X[2] <= 1.5\nmse = 1031001.202\nsamples = 4\nvalue = 17561.231"] ;
168 -> 170 ;
171 [label="X[1] <= 27.8\nmse = 86165.145\nsamples = 2\nvalue = 16591.385"] ;
170 -> 171 ;
172 [label="mse = 0.0\nsamples = 1\nvalue = 16297.846"] ;
171 -> 172 ;
173 [label="mse = 0.0\nsamples = 1\nvalue = 16884.924"] ;
171 -> 173 ;
174 [label="X[4] <= 1.5\nmse = 94633.897\nsamples = 2\nvalue = 18531.077"] ;
170 -> 174 ;
175 [label="mse = 0.0\nsamples = 1\nvalue = 18223.451"] ;
174 -> 175 ;
176 [label="mse = 0.0\nsamples = 1\nvalue = 18838.704"] ;
174 -> 176 ;
177 [label="X[1] <= 27.965\nmse = 49633232.482\nsamples = 8\nvalue = 9634.021"] ;
167 -> 177 ;
178 [label="X[4] <= 1.5\nmse = 50051286.777\nsamples = 6\nvalue = 7730.851"] ;
177 -> 178 ;
179 [label="X[1] <= 27.66\nmse = 52101706.332\nsamples = 3\nvalue = 12550.895"] ;
178 -> 179 ;
180 [label="X[3] <= 0.5\nmse = 1852828.919\nsamples = 2\nvalue = 17594.034"] ;
179 -> 180 ;
181 [label="mse = 0.0\nsamples = 1\nvalue = 18955.22"] ;
180 -> 181 ;
182 [label="mse = -0.0\nsamples = 1\nvalue = 16232.847"] ;
180 -> 182 ;
183 [label="mse = -0.0\nsamples = 1\nvalue = 2464.619"] ;
179 -> 183 ;
184 [label="X[0] <= 23.5\nmse = 1535220.441\nsamples = 3\nvalue = 2910.807"] ;
178 -> 184 ;
185 [label="X[0] <= 20.5\nmse = 4698.465\nsamples = 2\nvalue = 2035.568"] ;
184 -> 185 ;
186 [label="mse = 0.0\nsamples = 1\nvalue = 1967.023"] ;
185 -> 186 ;
187 [label="mse = 0.0\nsamples = 1\nvalue = 2104.113"] ;
185 -> 187 ;
188 [label="mse = 0.0\nsamples = 1\nvalue = 4661.286"] ;
184 -> 188 ;
189 [label="X[2] <= 0.5\nmse = 4914429.021\nsamples = 2\nvalue = 15343.529"] ;
177 -> 189 ;
190 [label="mse = 0.0\nsamples = 1\nvalue = 13126.677"] ;
189 -> 190 ;
191 [label="mse = 0.0\nsamples = 1\nvalue = 17560.38"] ;
189 -> 191 ;
192 [label="X[4] <= 1.5\nmse = 62935158.133\nsamples = 21\nvalue = 6354.802"] ;
166 -> 192 ;
193 [label="X[2] <= 3.0\nmse = 900879.61\nsamples = 7\nvalue = 2741.315"] ;
192 -> 193 ;
194 [label="X[0] <= 24.0\nmse = 314316.352\nsamples = 6\nvalue = 2416.901"] ;
193 -> 194 ;
195 [label="X[3] <= 0.5\nmse = 41048.143\nsamples = 4\nvalue = 2051.533"] ;
194 -> 195 ;
196 [label="X[1] <= 29.21\nmse = 35314.395\nsamples = 3\nvalue = 2121.205"] ;
195 -> 196 ;
197 [label="X[1] <= 28.61\nmse = 7635.894\nsamples = 2\nvalue = 2244.135"] ;
196 -> 197 ;
198 [label="mse = 0.0\nsamples = 1\nvalue = 2331.519"] ;
197 -> 198 ;
199 [label="mse = -0.0\nsamples = 1\nvalue = 2156.752"] ;
197 -> 199 ;
200 [label="mse = -0.0\nsamples = 1\nvalue = 1875.344"] ;
196 -> 200 ;
201 [label="mse = -0.0\nsamples = 1\nvalue = 1842.519"] ;
195 -> 201 ;
202 [label="X[3] <= 0.5\nmse = 59892.455\nsamples = 2\nvalue = 3147.636"] ;
194 -> 202 ;
203 [label="mse = 0.0\nsamples = 1\nvalue = 3392.365"] ;
202 -> 203 ;
204 [label="mse = -0.0\nsamples = 1\nvalue = 2902.906"] ;
202 -> 204 ;
205 [label="mse = 0.0\nsamples = 1\nvalue = 4687.797"] ;
193 -> 205 ;
206 [label="X[3] <= 0.5\nmse = 84159331.406\nsamples = 14\nvalue = 8161.545"] ;
192 -> 206 ;
207 [label="X[0] <= 19.5\nmse = 26376811.926\nsamples = 7\nvalue = 5813.394"] ;
206 -> 207 ;
208 [label="X[4] <= 2.5\nmse = 41850023.579\nsamples = 3\nvalue = 9091.024"] ;
207 -> 208 ;
209 [label="X[1] <= 28.69\nmse = 6561036.269\nsamples = 2\nvalue = 4762.283"] ;
208 -> 209 ;
210 [label="mse = 0.0\nsamples = 1\nvalue = 2200.831"] ;
209 -> 210 ;
211 [label="mse = 0.0\nsamples = 1\nvalue = 7323.735"] ;
209 -> 211 ;
212 [label="mse = 0.0\nsamples = 1\nvalue = 17748.506"] ;
208 -> 212 ;
213 [label="X[1] <= 29.165\nmse = 671904.064\nsamples = 4\nvalue = 3355.172"] ;
207 -> 213 ;
214 [label="X[0] <= 22.5\nmse = 246215.155\nsamples = 3\nvalue = 2952.165"] ;
213 -> 214 ;
215 [label="mse = 0.0\nsamples = 1\nvalue = 2257.475"] ;
214 -> 215 ;
216 [label="X[0] <= 25.5\nmse = 7376.843\nsamples = 2\nvalue = 3299.511"] ;
214 -> 216 ;
217 [label="mse = 0.0\nsamples = 1\nvalue = 3213.622"] ;
216 -> 217 ;
218 [label="mse = 0.0\nsamples = 1\nvalue = 3385.399"] ;
216 -> 218 ;
219 [label="mse = 0.0\nsamples = 1\nvalue = 4564.191"] ;
213 -> 219 ;
220 [label="X[0] <= 23.0\nmse = 130914226.291\nsamples = 7\nvalue = 10509.696"] ;
206 -> 220 ;
221 [label="X[1] <= 29.023\nmse = 39670345.325\nsamples = 5\nvalue = 6976.528"] ;
220 -> 221 ;
222 [label="X[2] <= 0.5\nmse = 15942763.776\nsamples = 4\nvalue = 4382.49"] ;
221 -> 222 ;
223 [label="X[1] <= 28.738\nmse = 9421.736\nsamples = 2\nvalue = 1809.293"] ;
222 -> 223 ;
224 [label="mse = 0.0\nsamples = 1\nvalue = 1712.227"] ;
223 -> 224 ;
225 [label="mse = 0.0\nsamples = 1\nvalue = 1906.358"] ;
223 -> 225 ;
226 [label="X[4] <= 2.5\nmse = 18633417.538\nsamples = 2\nvalue = 6955.687"] ;
222 -> 226 ;
227 [label="mse = 0.0\nsamples = 1\nvalue = 11272.331"] ;
226 -> 227 ;
228 [label="mse = 0.0\nsamples = 1\nvalue = 2639.043"] ;
226 -> 228 ;
229 [label="mse = 0.0\nsamples = 1\nvalue = 17352.68"] ;
221 -> 229 ;
230 [label="X[4] <= 2.5\nmse = 249795266.719\nsamples = 2\nvalue = 19342.616"] ;
220 -> 230 ;
231 [label="mse = 0.0\nsamples = 1\nvalue = 35147.528"] ;
230 -> 231 ;
232 [label="mse = -0.0\nsamples = 1\nvalue = 3537.703"] ;
230 -> 232 ;
233 [label="X[1] <= 17.812\nmse = 41278969.758\nsamples = 132\nvalue = 9030.407"] ;
3 -> 233 ;
234 [label="X[4] <= 2.5\nmse = 167135849.764\nsamples = 2\nvalue = 19806.083"] ;
233 -> 234 ;
235 [label="mse = 0.0\nsamples = 1\nvalue = 6877.98"] ;
234 -> 235 ;
236 [label="mse = 0.0\nsamples = 1\nvalue = 32734.186"] ;
234 -> 236 ;
237 [label="X[2] <= 0.5\nmse = 37528839.44\nsamples = 130\nvalue = 8864.627"] ;
233 -> 237 ;
238 [label="X[4] <= 1.5\nmse = 30130693.045\nsamples = 29\nvalue = 6977.567"] ;
237 -> 238 ;
239 [label="X[0] <= 28.0\nmse = 10735324.14\nsamples = 15\nvalue = 4855.801"] ;
238 -> 239 ;
240 [label="X[1] <= 24.425\nmse = 42660214.787\nsamples = 3\nvalue = 7345.214"] ;
239 -> 240 ;
241 [label="X[4] <= 0.5\nmse = 60120.588\nsamples = 2\nvalue = 2728.931"] ;
240 -> 241 ;
242 [label="mse = 0.0\nsamples = 1\nvalue = 2483.736"] ;
241 -> 242 ;
243 [label="mse = 0.0\nsamples = 1\nvalue = 2974.126"] ;
241 -> 243 ;
244 [label="mse = 0.0\nsamples = 1\nvalue = 16577.78"] ;
240 -> 244 ;
245 [label="X[0] <= 34.5\nmse = 817483.141\nsamples = 12\nvalue = 4233.447"] ;
239 -> 245 ;
246 [label="X[0] <= 29.5\nmse = 142214.838\nsamples = 8\nvalue = 3650.92"] ;
245 -> 246 ;
247 [label="X[3] <= 0.5\nmse = 59339.255\nsamples = 2\nvalue = 3109.688"] ;
246 -> 247 ;
248 [label="mse = 0.0\nsamples = 1\nvalue = 3353.284"] ;
247 -> 248 ;
249 [label="mse = 0.0\nsamples = 1\nvalue = 2866.091"] ;
247 -> 249 ;
250 [label="X[0] <= 31.5\nmse = 39647.817\nsamples = 6\nvalue = 3831.331"] ;
246 -> 250 ;
251 [label="X[0] <= 30.5\nmse = 7835.27\nsamples = 4\nvalue = 3707.49"] ;
250 -> 251 ;
252 [label="mse = 0.0\nsamples = 1\nvalue = 3554.203"] ;
251 -> 252 ;
253 [label="X[1] <= 27.86\nmse = 3.91\nsamples = 3\nvalue = 3758.586"] ;
251 -> 253 ;
254 [label="X[1] <= 26.18\nmse = 0.374\nsamples = 2\nvalue = 3757.233"] ;
253 -> 254 ;
255 [label="mse = 0.0\nsamples = 1\nvalue = 3756.622"] ;
254 -> 255 ;
256 [label="mse = 0.0\nsamples = 1\nvalue = 3757.845"] ;
254 -> 256 ;
257 [label="mse = 0.0\nsamples = 1\nvalue = 3761.292"] ;
253 -> 257 ;
258 [label="X[0] <= 32.5\nmse = 11254.367\nsamples = 2\nvalue = 4079.011"] ;
250 -> 258 ;
259 [label="mse = 0.0\nsamples = 1\nvalue = 3972.925"] ;
258 -> 259 ;
260 [label="mse = -0.0\nsamples = 1\nvalue = 4185.098"] ;
258 -> 260 ;
261 [label="X[0] <= 37.0\nmse = 131991.359\nsamples = 4\nvalue = 5398.502"] ;
245 -> 261 ;
262 [label="mse = 0.0\nsamples = 1\nvalue = 4883.866"] ;
261 -> 262 ;
263 [label="X[1] <= 28.6\nmse = 58277.364\nsamples = 3\nvalue = 5570.047"] ;
261 -> 263 ;
264 [label="X[1] <= 26.34\nmse = 258.007\nsamples = 2\nvalue = 5399.599"] ;
263 -> 264 ;
265 [label="mse = 0.0\nsamples = 1\nvalue = 5415.661"] ;
264 -> 265 ;
266 [label="mse = 0.0\nsamples = 1\nvalue = 5383.536"] ;
264 -> 266 ;
267 [label="mse = 0.0\nsamples = 1\nvalue = 5910.944"] ;
263 -> 267 ;
268 [label="X[3] <= 0.5\nmse = 40919996.203\nsamples = 14\nvalue = 9250.889"] ;
238 -> 268 ;
269 [label="X[0] <= 30.0\nmse = 14714385.865\nsamples = 8\nvalue = 6080.237"] ;
268 -> 269 ;
270 [label="X[1] <= 23.512\nmse = 39417579.839\nsamples = 2\nvalue = 9836.962"] ;
269 -> 270 ;
271 [label="mse = 0.0\nsamples = 1\nvalue = 16115.304"] ;
270 -> 271 ;
272 [label="mse = -0.0\nsamples = 1\nvalue = 3558.62"] ;
270 -> 272 ;
273 [label="X[0] <= 33.5\nmse = 207549.875\nsamples = 6\nvalue = 4827.995"] ;
269 -> 273 ;
274 [label="X[0] <= 31.5\nmse = 40024.629\nsamples = 3\nvalue = 4416.577"] ;
273 -> 274 ;
275 [label="mse = 0.0\nsamples = 1\nvalue = 4134.082"] ;
274 -> 275 ;
276 [label="X[0] <= 32.5\nmse = 184.664\nsamples = 2\nvalue = 4557.824"] ;
274 -> 276 ;
277 [label="mse = 0.0\nsamples = 1\nvalue = 4544.235"] ;
276 -> 277 ;
278 [label="mse = -0.0\nsamples = 1\nvalue = 4571.413"] ;
276 -> 278 ;
279 [label="X[0] <= 35.0\nmse = 36544.84\nsamples = 3\nvalue = 5239.414"] ;
273 -> 279 ;
280 [label="mse = 0.0\nsamples = 1\nvalue = 4992.376"] ;
279 -> 280 ;
281 [label="X[4] <= 2.5\nmse = 9046.702\nsamples = 2\nvalue = 5362.932"] ;
279 -> 281 ;
282 [label="mse = 0.0\nsamples = 1\nvalue = 5458.046"] ;
281 -> 282 ;
283 [label="mse = -0.0\nsamples = 1\nvalue = 5267.818"] ;
281 -> 283 ;
284 [label="X[1] <= 28.69\nmse = 44584706.119\nsamples = 6\nvalue = 13478.425"] ;
268 -> 284 ;
285 [label="X[1] <= 22.135\nmse = 31329902.769\nsamples = 5\nvalue = 15400.739"] ;
284 -> 285 ;
286 [label="mse = 0.0\nsamples = 1\nvalue = 4500.339"] ;
285 -> 286 ;
287 [label="X[0] <= 36.0\nmse = 2031532.499\nsamples = 4\nvalue = 18125.838"] ;
285 -> 287 ;
288 [label="X[1] <= 23.845\nmse = 888937.058\nsamples = 3\nvalue = 17451.344"] ;
287 -> 288 ;
289 [label="mse = 0.0\nsamples = 1\nvalue = 16138.762"] ;
288 -> 289 ;
290 [label="X[4] <= 2.5\nmse = 41252.646\nsamples = 2\nvalue = 18107.635"] ;
288 -> 290 ;
291 [label="mse = 0.0\nsamples = 1\nvalue = 17904.527"] ;
290 -> 291 ;
292 [label="mse = -0.0\nsamples = 1\nvalue = 18310.742"] ;
290 -> 292 ;
293 [label="mse = 0.0\nsamples = 1\nvalue = 20149.323"] ;
287 -> 293 ;
294 [label="mse = -0.0\nsamples = 1\nvalue = 3866.855"] ;
284 -> 294 ;
295 [label="X[4] <= 2.5\nmse = 38337017.155\nsamples = 101\nvalue = 9406.456"] ;
237 -> 295 ;
296 [label="X[1] <= 28.44\nmse = 42762569.381\nsamples = 68\nvalue = 10148.546"] ;
295 -> 296 ;
297 [label="X[1] <= 28.285\nmse = 46975374.322\nsamples = 53\nvalue = 10931.343"] ;
296 -> 297 ;
298 [label="X[1] <= 22.653\nmse = 45215094.779\nsamples = 51\nvalue = 10563.864"] ;
297 -> 298 ;
299 [label="X[1] <= 22.177\nmse = 47241434.382\nsamples = 14\nvalue = 13024.956"] ;
298 -> 299 ;
300 [label="X[1] <= 21.767\nmse = 28760294.35\nsamples = 10\nvalue = 11171.137"] ;
299 -> 300 ;
301 [label="X[0] <= 38.5\nmse = 24714519.397\nsamples = 7\nvalue = 13356.068"] ;
300 -> 301 ;
302 [label="X[0] <= 31.0\nmse = 25456040.368\nsamples = 4\nvalue = 10891.055"] ;
301 -> 302 ;
303 [label="X[0] <= 28.0\nmse = 681564.174\nsamples = 2\nvalue = 15832.148"] ;
302 -> 303 ;
304 [label="mse = 0.0\nsamples = 1\nvalue = 15006.579"] ;
303 -> 304 ;
305 [label="mse = -0.0\nsamples = 1\nvalue = 16657.717"] ;
303 -> 305 ;
306 [label="X[4] <= 1.5\nmse = 1401714.516\nsamples = 2\nvalue = 5949.962"] ;
302 -> 306 ;
307 [label="mse = 0.0\nsamples = 1\nvalue = 4766.022"] ;
306 -> 307 ;
308 [label="mse = -0.0\nsamples = 1\nvalue = 7133.902"] ;
306 -> 308 ;
309 [label="X[0] <= 40.5\nmse = 4821821.301\nsamples = 3\nvalue = 16642.751"] ;
301 -> 309 ;
310 [label="X[0] <= 39.5\nmse = 849842.453\nsamples = 2\nvalue = 18101.391"] ;
309 -> 310 ;
311 [label="mse = 0.0\nsamples = 1\nvalue = 19023.26"] ;
310 -> 311 ;
312 [label="mse = 0.0\nsamples = 1\nvalue = 17179.522"] ;
310 -> 312 ;
313 [label="mse = 0.0\nsamples = 1\nvalue = 13725.472"] ;
309 -> 313 ;
314 [label="X[0] <= 33.0\nmse = 1069929.256\nsamples = 3\nvalue = 6072.965"] ;
300 -> 314 ;
315 [label="mse = 0.0\nsamples = 1\nvalue = 4718.204"] ;
314 -> 315 ;
316 [label="X[0] <= 38.5\nmse = 228358.996\nsamples = 2\nvalue = 6750.346"] ;
314 -> 316 ;
317 [label="mse = 0.0\nsamples = 1\nvalue = 7228.216"] ;
316 -> 317 ;
318 [label="mse = 0.0\nsamples = 1\nvalue = 6272.477"] ;
316 -> 318 ;
319 [label="X[0] <= 31.5\nmse = 63373649.196\nsamples = 4\nvalue = 17659.503"] ;
299 -> 319 ;
320 [label="mse = 0.0\nsamples = 1\nvalue = 5209.579"] ;
319 -> 320 ;
321 [label="X[4] <= 1.5\nmse = 15609039.909\nsamples = 3\nvalue = 21809.478"] ;
319 -> 321 ;
322 [label="X[4] <= 0.5\nmse = 174725.588\nsamples = 2\nvalue = 19026.264"] ;
321 -> 322 ;
323 [label="mse = 0.0\nsamples = 1\nvalue = 19444.266"] ;
322 -> 323 ;
324 [label="mse = 0.0\nsamples = 1\nvalue = 18608.262"] ;
322 -> 324 ;
325 [label="mse = 0.0\nsamples = 1\nvalue = 27375.905"] ;
321 -> 325 ;
326 [label="X[1] <= 23.51\nmse = 41289366.011\nsamples = 37\nvalue = 9632.64"] ;
298 -> 326 ;
327 [label="X[0] <= 33.5\nmse = 2826519.485\nsamples = 7\nvalue = 6666.408"] ;
326 -> 327 ;
328 [label="X[4] <= 1.0\nmse = 335029.785\nsamples = 2\nvalue = 4140.706"] ;
327 -> 328 ;
329 [label="mse = 0.0\nsamples = 1\nvalue = 3561.889"] ;
328 -> 329 ;
330 [label="mse = 0.0\nsamples = 1\nvalue = 4719.524"] ;
328 -> 330 ;
331 [label="X[3] <= 0.5\nmse = 250781.823\nsamples = 5\nvalue = 7676.688"] ;
327 -> 331 ;
332 [label="X[1] <= 23.323\nmse = 15740.086\nsamples = 3\nvalue = 8074.858"] ;
331 -> 332 ;
333 [label="X[1] <= 23.037\nmse = 0.109\nsamples = 2\nvalue = 7986.145"] ;
332 -> 333 ;
334 [label="mse = 0.0\nsamples = 1\nvalue = 7985.815"] ;
333 -> 334 ;
335 [label="mse = 0.0\nsamples = 1\nvalue = 7986.475"] ;
333 -> 335 ;
336 [label="mse = -0.0\nsamples = 1\nvalue = 8252.284"] ;
332 -> 336 ;
337 [label="X[2] <= 2.5\nmse = 8822.187\nsamples = 2\nvalue = 7079.433"] ;
331 -> 337 ;
338 [label="mse = 0.0\nsamples = 1\nvalue = 7173.36"] ;
337 -> 338 ;
339 [label="mse = -0.0\nsamples = 1\nvalue = 6985.507"] ;
337 -> 339 ;
340 [label="X[1] <= 25.578\nmse = 47732007.491\nsamples = 30\nvalue = 10324.761"] ;
326 -> 340 ;
341 [label="X[4] <= 1.5\nmse = 54452949.109\nsamples = 10\nvalue = 12996.841"] ;
340 -> 341 ;
342 [label="X[4] <= 0.5\nmse = 34189271.941\nsamples = 6\nvalue = 9644.034"] ;
341 -> 342 ;
343 [label="X[2] <= 4.0\nmse = 18250650.203\nsamples = 3\nvalue = 14623.895"] ;
342 -> 343 ;
344 [label="X[0] <= 30.0\nmse = 340.489\nsamples = 2\nvalue = 17644.692"] ;
343 -> 344 ;
345 [label="mse = 0.0\nsamples = 1\nvalue = 17663.144"] ;
344 -> 345 ;
346 [label="mse = 0.0\nsamples = 1\nvalue = 17626.24"] ;
344 -> 346 ;
347 [label="mse = 0.0\nsamples = 1\nvalue = 8582.302"] ;
343 -> 347 ;
348 [label="X[2] <= 3.5\nmse = 529862.487\nsamples = 3\nvalue = 4664.173"] ;
342 -> 348 ;
349 [label="X[1] <= 24.2\nmse = 116213.833\nsamples = 2\nvalue = 4188.576"] ;
348 -> 349 ;
350 [label="mse = 0.0\nsamples = 1\nvalue = 3847.674"] ;
349 -> 350 ;
351 [label="mse = 0.0\nsamples = 1\nvalue = 4529.477"] ;
349 -> 351 ;
352 [label="mse = 0.0\nsamples = 1\nvalue = 5615.369"] ;
348 -> 352 ;
353 [label="X[1] <= 24.13\nmse = 42693549.0\nsamples = 4\nvalue = 18026.05"] ;
341 -> 353 ;
354 [label="mse = 0.0\nsamples = 1\nvalue = 6858.48"] ;
353 -> 354 ;
355 [label="X[1] <= 24.605\nmse = 1496004.313\nsamples = 3\nvalue = 21748.574"] ;
353 -> 355 ;
356 [label="mse = 0.0\nsamples = 1\nvalue = 23288.928"] ;
355 -> 356 ;
357 [label="X[0] <= 38.0\nmse = 464487.673\nsamples = 2\nvalue = 20978.397"] ;
355 -> 357 ;
358 [label="mse = 0.0\nsamples = 1\nvalue = 20296.863"] ;
357 -> 358 ;
359 [label="mse = -0.0\nsamples = 1\nvalue = 21659.93"] ;
357 -> 359 ;
360 [label="X[0] <= 29.5\nmse = 39016529.16\nsamples = 20\nvalue = 8988.721"] ;
340 -> 360 ;
361 [label="X[1] <= 27.24\nmse = 53422546.381\nsamples = 4\nvalue = 12357.353"] ;
360 -> 361 ;
362 [label="X[0] <= 28.5\nmse = 405624.287\nsamples = 2\nvalue = 5071.981"] ;
361 -> 362 ;
363 [label="mse = 0.0\nsamples = 1\nvalue = 4435.094"] ;
362 -> 363 ;
364 [label="mse = 0.0\nsamples = 1\nvalue = 5708.867"] ;
362 -> 364 ;
365 [label="X[2] <= 1.5\nmse = 286166.971\nsamples = 2\nvalue = 19642.725"] ;
361 -> 365 ;
366 [label="mse = 0.0\nsamples = 1\nvalue = 19107.78"] ;
365 -> 366 ;
367 [label="mse = 0.0\nsamples = 1\nvalue = 20177.671"] ;
365 -> 367 ;
368 [label="X[3] <= 0.5\nmse = 31868874.779\nsamples = 16\nvalue = 8146.563"] ;
360 -> 368 ;
369 [label="X[0] <= 37.0\nmse = 792663.874\nsamples = 8\nvalue = 5701.445"] ;
368 -> 369 ;
370 [label="X[0] <= 35.0\nmse = 53717.827\nsamples = 5\nvalue = 5038.678"] ;
369 -> 370 ;
371 [label="X[1] <= 27.885\nmse = 8348.242\nsamples = 4\nvalue = 4930.236"] ;
370 -> 371 ;
372 [label="X[1] <= 26.265\nmse = 1046.352\nsamples = 3\nvalue = 4980.447"] ;
371 -> 372 ;
373 [label="mse = 0.0\nsamples = 1\nvalue = 4934.705"] ;
372 -> 373 ;
374 [label="X[1] <= 27.115\nmse = 0.286\nsamples = 2\nvalue = 5003.318"] ;
372 -> 374 ;
375 [label="mse = 0.0\nsamples = 1\nvalue = 5002.783"] ;
374 -> 375 ;
376 [label="mse = 0.0\nsamples = 1\nvalue = 5003.853"] ;
374 -> 376 ;
377 [label="mse = 0.0\nsamples = 1\nvalue = 4779.602"] ;
371 -> 377 ;
378 [label="mse = 0.0\nsamples = 1\nvalue = 5472.449"] ;
370 -> 378 ;
379 [label="X[2] <= 2.0\nmse = 71974.04\nsamples = 3\nvalue = 6806.057"] ;
369 -> 379 ;
380 [label="X[0] <= 40.5\nmse = 18674.111\nsamples = 2\nvalue = 6633.539"] ;
379 -> 380 ;
381 [label="mse = 0.0\nsamples = 1\nvalue = 6496.886"] ;
380 -> 381 ;
382 [label="mse = 0.0\nsamples = 1\nvalue = 6770.192"] ;
380 -> 382 ;
383 [label="mse = -0.0\nsamples = 1\nvalue = 7151.092"] ;
379 -> 383 ;
384 [label="X[1] <= 27.693\nmse = 50987882.471\nsamples = 8\nvalue = 10591.681"] ;
368 -> 384 ;
385 [label="X[1] <= 27.325\nmse = 40638847.429\nsamples = 7\nvalue = 9107.051"] ;
384 -> 385 ;
386 [label="X[0] <= 34.0\nmse = 45918388.965\nsamples = 3\nvalue = 14329.055"] ;
385 -> 386 ;
387 [label="X[2] <= 2.0\nmse = 6325.657\nsamples = 2\nvalue = 19120.41"] ;
386 -> 387 ;
388 [label="mse = 0.0\nsamples = 1\nvalue = 19040.876"] ;
387 -> 388 ;
389 [label="mse = -0.0\nsamples = 1\nvalue = 19199.944"] ;
387 -> 389 ;
390 [label="mse = 0.0\nsamples = 1\nvalue = 4746.344"] ;
386 -> 390 ;
391 [label="X[0] <= 35.5\nmse = 888202.828\nsamples = 4\nvalue = 5190.548"] ;
385 -> 391 ;
392 [label="X[0] <= 30.5\nmse = 107940.788\nsamples = 3\nvalue = 4671.816"] ;
391 -> 392 ;
393 [label="mse = 0.0\nsamples = 1\nvalue = 4237.127"] ;
392 -> 393 ;
394 [label="X[2] <= 1.5\nmse = 20194.776\nsamples = 2\nvalue = 4889.161"] ;
392 -> 394 ;
395 [label="mse = 0.0\nsamples = 1\nvalue = 4747.053"] ;
394 -> 395 ;
396 [label="mse = 0.0\nsamples = 1\nvalue = 5031.27"] ;
394 -> 396 ;
397 [label="mse = -0.0\nsamples = 1\nvalue = 6746.742"] ;
391 -> 397 ;
398 [label="mse = -0.0\nsamples = 1\nvalue = 20984.094"] ;
384 -> 398 ;
399 [label="X[3] <= 0.5\nmse = 608549.613\nsamples = 2\nvalue = 20302.064"] ;
297 -> 399 ;
400 [label="mse = 0.0\nsamples = 1\nvalue = 19521.968"] ;
399 -> 400 ;
401 [label="mse = 0.0\nsamples = 1\nvalue = 21082.16"] ;
399 -> 401 ;
402 [label="X[0] <= 31.5\nmse = 18062073.654\nsamples = 15\nvalue = 7382.66"] ;
296 -> 402 ;
403 [label="X[1] <= 28.738\nmse = 1215377.163\nsamples = 4\nvalue = 4907.199"] ;
402 -> 403 ;
404 [label="mse = 0.0\nsamples = 1\nvalue = 6799.458"] ;
403 -> 404 ;
405 [label="X[1] <= 29.118\nmse = 29104.676\nsamples = 3\nvalue = 4276.445"] ;
403 -> 405 ;
406 [label="mse = 0.0\nsamples = 1\nvalue = 4040.558"] ;
405 -> 406 ;
407 [label="X[0] <= 29.5\nmse = 1924.972\nsamples = 2\nvalue = 4394.389"] ;
405 -> 407 ;
408 [label="mse = 0.0\nsamples = 1\nvalue = 4438.263"] ;
407 -> 408 ;
409 [label="mse = 0.0\nsamples = 1\nvalue = 4350.514"] ;
407 -> 409 ;
410 [label="X[0] <= 32.5\nmse = 21149512.114\nsamples = 11\nvalue = 8282.828"] ;
402 -> 410 ;
411 [label="X[1] <= 29.26\nmse = 57432545.185\nsamples = 2\nvalue = 12141.268"] ;
410 -> 411 ;
412 [label="mse = 0.0\nsamples = 1\nvalue = 19719.695"] ;
411 -> 412 ;
413 [label="mse = 0.0\nsamples = 1\nvalue = 4562.842"] ;
411 -> 413 ;
414 [label="X[0] <= 39.5\nmse = 9043080.208\nsamples = 9\nvalue = 7425.397"] ;
410 -> 414 ;
415 [label="X[1] <= 29.55\nmse = 276163.861\nsamples = 7\nvalue = 6388.216"] ;
414 -> 415 ;
416 [label="X[1] <= 28.89\nmse = 76512.515\nsamples = 6\nvalue = 6200.874"] ;
415 -> 416 ;
417 [label="mse = 0.0\nsamples = 1\nvalue = 6748.591"] ;
416 -> 417 ;
418 [label="X[1] <= 29.095\nmse = 19816.528\nsamples = 5\nvalue = 6091.331"] ;
416 -> 418 ;
419 [label="X[1] <= 28.915\nmse = 564.982\nsamples = 2\nvalue = 5950.615"] ;
418 -> 419 ;
420 [label="mse = 0.0\nsamples = 1\nvalue = 5926.846"] ;
419 -> 420 ;
421 [label="mse = -0.0\nsamples = 1\nvalue = 5974.385"] ;
419 -> 421 ;
422 [label="X[1] <= 29.45\nmse = 10649.892\nsamples = 3\nvalue = 6185.141"] ;
418 -> 422 ;
423 [label="X[3] <= 0.5\nmse = 3914.154\nsamples = 2\nvalue = 6121.736"] ;
422 -> 423 ;
424 [label="mse = 0.0\nsamples = 1\nvalue = 6184.299"] ;
423 -> 424 ;
425 [label="mse = 0.0\nsamples = 1\nvalue = 6059.173"] ;
423 -> 425 ;
426 [label="mse = -0.0\nsamples = 1\nvalue = 6311.952"] ;
422 -> 426 ;
427 [label="mse = 0.0\nsamples = 1\nvalue = 7512.267"] ;
415 -> 427 ;
428 [label="X[3] <= 0.5\nmse = 22784329.548\nsamples = 2\nvalue = 11055.528"] ;
414 -> 428 ;
429 [label="mse = 0.0\nsamples = 1\nvalue = 15828.822"] ;
428 -> 429 ;
430 [label="mse = -0.0\nsamples = 1\nvalue = 6282.235"] ;
428 -> 430 ;
431 [label="X[2] <= 2.5\nmse = 25744616.907\nsamples = 33\nvalue = 7877.302"] ;
295 -> 431 ;
432 [label="X[0] <= 33.5\nmse = 9635450.669\nsamples = 23\nvalue = 6116.755"] ;
431 -> 432 ;
433 [label="X[2] <= 1.5\nmse = 159247.028\nsamples = 8\nvalue = 4507.525"] ;
432 -> 433 ;
434 [label="X[1] <= 27.17\nmse = 27370.595\nsamples = 5\nvalue = 4235.31"] ;
433 -> 434 ;
435 [label="X[0] <= 30.5\nmse = 7187.862\nsamples = 3\nvalue = 4135.258"] ;
434 -> 435 ;
436 [label="X[3] <= 0.5\nmse = 2570.538\nsamples = 2\nvalue = 4082.941"] ;
435 -> 436 ;
437 [label="mse = 0.0\nsamples = 1\nvalue = 4133.642"] ;
436 -> 437 ;
438 [label="mse = -0.0\nsamples = 1\nvalue = 4032.241"] ;
436 -> 438 ;
439 [label="mse = -0.0\nsamples = 1\nvalue = 4239.893"] ;
435 -> 439 ;
440 [label="X[3] <= 0.5\nmse = 20106.233\nsamples = 2\nvalue = 4385.387"] ;
434 -> 440 ;
441 [label="mse = 0.0\nsamples = 1\nvalue = 4527.183"] ;
440 -> 441 ;
442 [label="mse = -0.0\nsamples = 1\nvalue = 4243.59"] ;
440 -> 442 ;
443 [label="X[3] <= 0.5\nmse = 49701.66\nsamples = 3\nvalue = 4961.218"] ;
433 -> 443 ;
444 [label="X[1] <= 22.04\nmse = 8711.712\nsamples = 2\nvalue = 4813.073"] ;
443 -> 444 ;
445 [label="mse = 0.0\nsamples = 1\nvalue = 4906.41"] ;
444 -> 445 ;
446 [label="mse = 0.0\nsamples = 1\nvalue = 4719.737"] ;
444 -> 446 ;
447 [label="mse = -0.0\nsamples = 1\nvalue = 5257.508"] ;
443 -> 447 ;
448 [label="X[1] <= 27.122\nmse = 12571692.427\nsamples = 15\nvalue = 6975.011"] ;
432 -> 448 ;
449 [label="X[0] <= 36.0\nmse = 457698.525\nsamples = 10\nvalue = 5840.86"] ;
448 -> 449 ;
450 [label="X[3] <= 0.5\nmse = 30185.691\nsamples = 4\nvalue = 5130.452"] ;
449 -> 450 ;
451 [label="mse = 0.0\nsamples = 1\nvalue = 5385.338"] ;
450 -> 451 ;
452 [label="X[0] <= 34.5\nmse = 11373.406\nsamples = 3\nvalue = 5045.49"] ;
450 -> 452 ;
453 [label="mse = 0.0\nsamples = 1\nvalue = 4894.753"] ;
452 -> 453 ;
454 [label="X[1] <= 20.995\nmse = 18.989\nsamples = 2\nvalue = 5120.858"] ;
452 -> 454 ;
455 [label="mse = 0.0\nsamples = 1\nvalue = 5116.5"] ;
454 -> 455 ;
456 [label="mse = 0.0\nsamples = 1\nvalue = 5125.216"] ;
454 -> 456 ;
457 [label="X[3] <= 0.5\nmse = 181951.206\nsamples = 6\nvalue = 6314.466"] ;
449 -> 457 ;
458 [label="mse = 0.0\nsamples = 1\nvalue = 7201.701"] ;
457 -> 458 ;
459 [label="X[1] <= 20.9\nmse = 29416.906\nsamples = 5\nvalue = 6137.019"] ;
457 -> 459 ;
460 [label="mse = 0.0\nsamples = 1\nvalue = 5855.902"] ;
459 -> 460 ;
461 [label="X[0] <= 39.5\nmse = 12075.339\nsamples = 4\nvalue = 6207.298"] ;
459 -> 461 ;
462 [label="X[0] <= 38.0\nmse = 1365.792\nsamples = 3\nvalue = 6146.605"] ;
461 -> 462 ;
463 [label="mse = 0.0\nsamples = 1\nvalue = 6198.752"] ;
462 -> 463 ;
464 [label="X[1] <= 24.035\nmse = 9.224\nsamples = 2\nvalue = 6120.532"] ;
462 -> 464 ;
465 [label="mse = 0.0\nsamples = 1\nvalue = 6117.494"] ;
464 -> 465 ;
466 [label="mse = -0.0\nsamples = 1\nvalue = 6123.569"] ;
464 -> 466 ;
467 [label="mse = 0.0\nsamples = 1\nvalue = 6389.378"] ;
461 -> 467 ;
468 [label="X[0] <= 35.5\nmse = 29081899.631\nsamples = 5\nvalue = 9243.311"] ;
448 -> 468 ;
469 [label="mse = 0.0\nsamples = 1\nvalue = 20009.634"] ;
468 -> 469 ;
470 [label="X[3] <= 0.5\nmse = 129342.763\nsamples = 4\nvalue = 6551.73"] ;
468 -> 470 ;
471 [label="mse = 0.0\nsamples = 1\nvalue = 7153.554"] ;
470 -> 471 ;
472 [label="X[0] <= 37.5\nmse = 11483.026\nsamples = 3\nvalue = 6351.123"] ;
470 -> 472 ;
473 [label="mse = -0.0\nsamples = 1\nvalue = 6203.902"] ;
472 -> 473 ;
474 [label="X[0] <= 39.0\nmse = 969.052\nsamples = 2\nvalue = 6424.733"] ;
472 -> 474 ;
475 [label="mse = 0.0\nsamples = 1\nvalue = 6455.863"] ;
474 -> 475 ;
476 [label="mse = 0.0\nsamples = 1\nvalue = 6393.603"] ;
474 -> 476 ;
477 [label="X[0] <= 34.0\nmse = 39270287.212\nsamples = 10\nvalue = 11926.561"] ;
431 -> 477 ;
478 [label="X[1] <= 27.218\nmse = 45192361.057\nsamples = 6\nvalue = 14735.073"] ;
477 -> 478 ;
479 [label="X[1] <= 24.985\nmse = 37250122.71\nsamples = 4\nvalue = 11547.993"] ;
478 -> 479 ;
480 [label="X[1] <= 19.998\nmse = 32384392.408\nsamples = 3\nvalue = 13626.6"] ;
479 -> 480 ;
481 [label="mse = 0.0\nsamples = 1\nvalue = 5693.43"] ;
480 -> 481 ;
482 [label="X[0] <= 28.5\nmse = 1375202.892\nsamples = 2\nvalue = 17593.185"] ;
480 -> 482 ;
483 [label="mse = 0.0\nsamples = 1\nvalue = 16420.495"] ;
482 -> 483 ;
484 [label="mse = 0.0\nsamples = 1\nvalue = 18765.875"] ;
482 -> 484 ;
485 [label="mse = 0.0\nsamples = 1\nvalue = 5312.17"] ;
479 -> 485 ;
486 [label="X[2] <= 3.5\nmse = 131946.821\nsamples = 2\nvalue = 21109.234"] ;
478 -> 486 ;
487 [label="mse = 0.0\nsamples = 1\nvalue = 20745.989"] ;
486 -> 487 ;
488 [label="mse = -0.0\nsamples = 1\nvalue = 21472.479"] ;
486 -> 488 ;
489 [label="X[0] <= 38.0\nmse = 808159.764\nsamples = 4\nvalue = 7713.794"] ;
477 -> 489 ;
490 [label="X[0] <= 36.5\nmse = 134436.091\nsamples = 2\nvalue = 6914.85"] ;
489 -> 490 ;
491 [label="mse = 0.0\nsamples = 1\nvalue = 6548.195"] ;
490 -> 491 ;
492 [label="mse = 0.0\nsamples = 1\nvalue = 7281.506"] ;
490 -> 492 ;
493 [label="X[2] <= 4.0\nmse = 205261.846\nsamples = 2\nvalue = 8512.737"] ;
489 -> 493 ;
494 [label="mse = 0.0\nsamples = 1\nvalue = 8059.679"] ;
493 -> 494 ;
495 [label="mse = 0.0\nsamples = 1\nvalue = 8965.796"] ;
493 -> 495 ;
496 [label="X[2] <= 1.5\nmse = 98417132.254\nsamples = 8\nvalue = 17755.945"] ;
2 -> 496 ;
497 [label="X[2] <= 0.5\nmse = 105360316.098\nsamples = 5\nvalue = 21008.295"] ;
496 -> 497 ;
498 [label="X[3] <= 0.5\nmse = 38849003.056\nsamples = 4\nvalue = 16698.97"] ;
497 -> 498 ;
499 [label="X[1] <= 24.985\nmse = 478836.113\nsamples = 2\nvalue = 20656.726"] ;
498 -> 499 ;
500 [label="mse = 0.0\nsamples = 1\nvalue = 19964.746"] ;
499 -> 500 ;
501 [label="mse = 0.0\nsamples = 1\nvalue = 21348.706"] ;
499 -> 501 ;
502 [label="X[1] <= 24.75\nmse = 45891507.658\nsamples = 2\nvalue = 12741.214"] ;
498 -> 502 ;
503 [label="mse = 0.0\nsamples = 1\nvalue = 19515.542"] ;
502 -> 503 ;
504 [label="mse = 0.0\nsamples = 1\nvalue = 5966.887"] ;
502 -> 504 ;
505 [label="mse = -0.0\nsamples = 1\nvalue = 38245.593"] ;
497 -> 505 ;
506 [label="X[1] <= 24.795\nmse = 39832801.694\nsamples = 3\nvalue = 12335.362"] ;
496 -> 506 ;
507 [label="mse = 0.0\nsamples = 1\nvalue = 21259.378"] ;
506 -> 507 ;
508 [label="X[4] <= 2.5\nmse = 20651.903\nsamples = 2\nvalue = 7873.353"] ;
506 -> 508 ;
509 [label="mse = 0.0\nsamples = 1\nvalue = 7729.646"] ;
508 -> 509 ;
510 [label="mse = -0.0\nsamples = 1\nvalue = 8017.061"] ;
508 -> 510 ;
511 [label="X[0] <= 18.5\nmse = 190839953.518\nsamples = 287\nvalue = 12410.267"] ;
1 -> 511 ;
512 [label="X[1] <= 41.69\nmse = 138113399.471\nsamples = 30\nvalue = 8251.623"] ;
511 -> 512 ;
513 [label="X[1] <= 31.825\nmse = 112169972.209\nsamples = 28\nvalue = 7414.019"] ;
512 -> 513 ;
514 [label="X[1] <= 31.515\nmse = 177857026.33\nsamples = 9\nvalue = 11621.324"] ;
513 -> 514 ;
515 [label="X[1] <= 30.21\nmse = 44385978.345\nsamples = 7\nvalue = 5222.295"] ;
514 -> 515 ;
516 [label="X[1] <= 30.073\nmse = 96280181.377\nsamples = 2\nvalue = 11532.6"] ;
515 -> 516 ;
517 [label="mse = 0.0\nsamples = 1\nvalue = 1720.354"] ;
516 -> 517 ;
518 [label="mse = 0.0\nsamples = 1\nvalue = 21344.847"] ;
516 -> 518 ;
519 [label="X[2] <= 1.5\nmse = 1329123.211\nsamples = 5\nvalue = 2698.173"] ;
515 -> 519 ;
520 [label="X[4] <= 1.0\nmse = 75194.526\nsamples = 3\nvalue = 1815.936"] ;
519 -> 520 ;
521 [label="X[1] <= 31.24\nmse = 0.023\nsamples = 2\nvalue = 1622.036"] ;
520 -> 521 ;
522 [label="mse = 0.0\nsamples = 1\nvalue = 1621.883"] ;
521 -> 522 ;
523 [label="mse = -0.0\nsamples = 1\nvalue = 1622.188"] ;
521 -> 523 ;
524 [label="mse = -0.0\nsamples = 1\nvalue = 2203.736"] ;
520 -> 524 ;
525 [label="X[3] <= 0.5\nmse = 291233.185\nsamples = 2\nvalue = 4021.528"] ;
519 -> 525 ;
526 [label="mse = 0.0\nsamples = 1\nvalue = 4561.188"] ;
525 -> 526 ;
527 [label="mse = -0.0\nsamples = 1\nvalue = 3481.868"] ;
525 -> 527 ;
528 [label="X[4] <= 1.0\nmse = 81362.0\nsamples = 2\nvalue = 34017.927"] ;
514 -> 528 ;
529 [label="mse = 0.0\nsamples = 1\nvalue = 34303.167"] ;
528 -> 529 ;
530 [label="mse = 0.0\nsamples = 1\nvalue = 33732.687"] ;
528 -> 530 ;
531 [label="X[1] <= 39.15\nmse = 68698385.362\nsamples = 19\nvalue = 5421.085"] ;
513 -> 531 ;
532 [label="X[1] <= 36.237\nmse = 86311175.817\nsamples = 14\nvalue = 6766.76"] ;
531 -> 532 ;
533 [label="X[1] <= 33.825\nmse = 10292737.577\nsamples = 8\nvalue = 3113.401"] ;
532 -> 533 ;
534 [label="X[1] <= 33.243\nmse = 309666.738\nsamples = 5\nvalue = 2015.286"] ;
533 -> 534 ;
535 [label="X[4] <= 1.0\nmse = 78519.324\nsamples = 3\nvalue = 2404.979"] ;
534 -> 535 ;
536 [label="mse = 0.0\nsamples = 1\nvalue = 2801.259"] ;
535 -> 536 ;
537 [label="X[1] <= 32.537\nmse = 0.737\nsamples = 2\nvalue = 2206.839"] ;
535 -> 537 ;
538 [label="mse = 0.0\nsamples = 1\nvalue = 2205.981"] ;
537 -> 538 ;
539 [label="mse = -0.0\nsamples = 1\nvalue = 2207.697"] ;
537 -> 539 ;
540 [label="X[2] <= 0.5\nmse = 86910.46\nsamples = 2\nvalue = 1430.747"] ;
534 -> 540 ;
541 [label="mse = 0.0\nsamples = 1\nvalue = 1135.941"] ;
540 -> 541 ;
542 [label="mse = -0.0\nsamples = 1\nvalue = 1725.552"] ;
540 -> 542 ;
543 [label="X[1] <= 33.99\nmse = 21571828.262\nsamples = 3\nvalue = 4943.592"] ;
533 -> 543 ;
544 [label="mse = 0.0\nsamples = 1\nvalue = 11482.635"] ;
543 -> 544 ;
545 [label="X[4] <= 1.0\nmse = 288433.309\nsamples = 2\nvalue = 1674.071"] ;
543 -> 545 ;
546 [label="mse = 0.0\nsamples = 1\nvalue = 1137.011"] ;
545 -> 546 ;
547 [label="mse = 0.0\nsamples = 1\nvalue = 2211.131"] ;
545 -> 547 ;
548 [label="X[1] <= 37.51\nmse = 146144984.125\nsamples = 6\nvalue = 11637.906"] ;
532 -> 548 ;
549 [label="mse = 297901559.031\nsamples = 2\nvalue = 18889.658"] ;
548 -> 549 ;
550 [label="X[1] <= 38.225\nmse = 30825762.834\nsamples = 4\nvalue = 8012.03"] ;
548 -> 550 ;
551 [label="mse = 0.0\nsamples = 1\nvalue = 1631.668"] ;
550 -> 551 ;
552 [label="X[2] <= 1.0\nmse = 23008121.298\nsamples = 3\nvalue = 10138.817"] ;
550 -> 552 ;
553 [label="X[1] <= 38.71\nmse = 386249.882\nsamples = 2\nvalue = 13511.548"] ;
552 -> 553 ;
554 [label="mse = 0.0\nsamples = 1\nvalue = 14133.038"] ;
553 -> 554 ;
555 [label="mse = 0.0\nsamples = 1\nvalue = 12890.058"] ;
553 -> 555 ;
556 [label="mse = -0.0\nsamples = 1\nvalue = 3393.356"] ;
552 -> 556 ;
557 [label="X[4] <= 1.0\nmse = 115223.285\nsamples = 5\nvalue = 1653.195"] ;
531 -> 557 ;
558 [label="X[1] <= 40.7\nmse = 44481.038\nsamples = 4\nvalue = 1512.094"] ;
557 -> 558 ;
559 [label="X[1] <= 39.49\nmse = 0.395\nsamples = 3\nvalue = 1633.86"] ;
558 -> 559 ;
560 [label="mse = 0.0\nsamples = 1\nvalue = 1633.044"] ;
559 -> 560 ;
561 [label="X[1] <= 40.04\nmse = 0.094\nsamples = 2\nvalue = 1634.268"] ;
559 -> 561 ;
562 [label="mse = 0.0\nsamples = 1\nvalue = 1633.962"] ;
561 -> 562 ;
563 [label="mse = -0.0\nsamples = 1\nvalue = 1634.573"] ;
561 -> 563 ;
564 [label="mse = 0.0\nsamples = 1\nvalue = 1146.797"] ;
558 -> 564 ;
565 [label="mse = 0.0\nsamples = 1\nvalue = 2217.601"] ;
557 -> 565 ;
566 [label="X[1] <= 47.685\nmse = 353989604.014\nsamples = 2\nvalue = 19978.074"] ;
512 -> 566 ;
567 [label="mse = 0.0\nsamples = 1\nvalue = 38792.686"] ;
566 -> 567 ;
568 [label="mse = 0.0\nsamples = 1\nvalue = 1163.463"] ;
566 -> 568 ;
569 [label="X[1] <= 51.48\nmse = 194740355.157\nsamples = 257\nvalue = 12895.712"] ;
511 -> 569 ;
570 [label="X[1] <= 35.468\nmse = 191583788.433\nsamples = 256\nvalue = 12772.252"] ;
569 -> 570 ;
571 [label="X[4] <= 0.5\nmse = 161123878.035\nsamples = 164\nvalue = 11802.761"] ;
570 -> 571 ;
572 [label="X[0] <= 19.5\nmse = 99727298.966\nsamples = 36\nvalue = 8184.296"] ;
571 -> 572 ;
573 [label="X[3] <= 0.5\nmse = 894457.627\nsamples = 2\nvalue = 33494.098"] ;
572 -> 573 ;
574 [label="mse = 0.0\nsamples = 1\nvalue = 34439.856"] ;
573 -> 574 ;
575 [label="mse = 0.0\nsamples = 1\nvalue = 32548.34"] ;
573 -> 575 ;
576 [label="X[1] <= 32.89\nmse = 65642899.038\nsamples = 34\nvalue = 6695.484"] ;
572 -> 576 ;
577 [label="X[1] <= 32.725\nmse = 117012037.511\nsamples = 16\nvalue = 9761.463"] ;
576 -> 577 ;
578 [label="X[1] <= 31.295\nmse = 75777186.404\nsamples = 15\nvalue = 8010.826"] ;
577 -> 578 ;
579 [label="X[3] <= 0.5\nmse = 92835741.49\nsamples = 10\nvalue = 10606.917"] ;
578 -> 579 ;
580 [label="X[0] <= 31.0\nmse = 1155999.094\nsamples = 6\nvalue = 5459.894"] ;
579 -> 580 ;
581 [label="mse = 0.0\nsamples = 1\nvalue = 3392.977"] ;
580 -> 581 ;
582 [label="X[0] <= 36.5\nmse = 361883.355\nsamples = 5\nvalue = 5873.278"] ;
580 -> 582 ;
583 [label="X[2] <= 0.5\nmse = 86730.25\nsamples = 2\nvalue = 5183.537"] ;
582 -> 583 ;
584 [label="mse = 0.0\nsamples = 1\nvalue = 4889.037"] ;
583 -> 584 ;
585 [label="mse = 0.0\nsamples = 1\nvalue = 5478.037"] ;
583 -> 585 ;
586 [label="X[1] <= 30.305\nmse = 16715.725\nsamples = 3\nvalue = 6333.105"] ;
582 -> 586 ;
587 [label="mse = 0.0\nsamples = 1\nvalue = 6500.236"] ;
586 -> 587 ;
588 [label="X[1] <= 30.91\nmse = 4124.093\nsamples = 2\nvalue = 6249.54"] ;
586 -> 588 ;
589 [label="mse = 0.0\nsamples = 1\nvalue = 6313.759"] ;
588 -> 589 ;
590 [label="mse = 0.0\nsamples = 1\nvalue = 6185.321"] ;
588 -> 590 ;
591 [label="X[0] <= 20.5\nmse = 131010942.701\nsamples = 4\nvalue = 18327.451"] ;
579 -> 591 ;
592 [label="mse = 0.0\nsamples = 1\nvalue = 2566.471"] ;
591 -> 592 ;
593 [label="X[1] <= 31.075\nmse = 64277475.612\nsamples = 3\nvalue = 23581.111"] ;
591 -> 593 ;
594 [label="X[0] <= 26.0\nmse = 1909745.989\nsamples = 2\nvalue = 17968.433"] ;
593 -> 594 ;
595 [label="mse = 0.0\nsamples = 1\nvalue = 16586.498"] ;
594 -> 595 ;
596 [label="mse = 0.0\nsamples = 1\nvalue = 19350.369"] ;
594 -> 596 ;
597 [label="mse = 0.0\nsamples = 1\nvalue = 34806.468"] ;
593 -> 597 ;
598 [label="X[0] <= 28.5\nmse = 1221951.465\nsamples = 5\nvalue = 2818.645"] ;
578 -> 598 ;
599 [label="X[2] <= 1.0\nmse = 253655.259\nsamples = 4\nvalue = 2313.91"] ;
598 -> 599 ;
600 [label="X[0] <= 25.0\nmse = 93196.664\nsamples = 3\nvalue = 2066.418"] ;
599 -> 600 ;
601 [label="X[1] <= 32.01\nmse = 719.42\nsamples = 2\nvalue = 1851.107"] ;
600 -> 601 ;
602 [label="mse = 0.0\nsamples = 1\nvalue = 1877.929"] ;
601 -> 602 ;
603 [label="mse = 0.0\nsamples = 1\nvalue = 1824.285"] ;
601 -> 603 ;
604 [label="mse = -0.0\nsamples = 1\nvalue = 2497.038"] ;
600 -> 604 ;
605 [label="mse = -0.0\nsamples = 1\nvalue = 3056.388"] ;
599 -> 605 ;
606 [label="mse = 0.0\nsamples = 1\nvalue = 4837.582"] ;
598 -> 606 ;
607 [label="mse = -0.0\nsamples = 1\nvalue = 36021.011"] ;
577 -> 607 ;
608 [label="X[0] <= 31.5\nmse = 4198343.858\nsamples = 18\nvalue = 3970.169"] ;
576 -> 608 ;
609 [label="X[2] <= 0.5\nmse = 1074978.808\nsamples = 12\nvalue = 2813.754"] ;
608 -> 609 ;
610 [label="X[0] <= 23.0\nmse = 272941.532\nsamples = 8\nvalue = 2179.096"] ;
609 -> 610 ;
611 [label="X[3] <= 0.5\nmse = 56005.719\nsamples = 4\nvalue = 1741.696"] ;
610 -> 611 ;
612 [label="X[1] <= 33.935\nmse = 4933.819\nsamples = 2\nvalue = 1950.311"] ;
611 -> 612 ;
613 [label="mse = 0.0\nsamples = 1\nvalue = 1880.07"] ;
612 -> 613 ;
614 [label="mse = 0.0\nsamples = 1\nvalue = 2020.552"] ;
612 -> 614 ;
615 [label="X[1] <= 33.55\nmse = 20036.912\nsamples = 2\nvalue = 1533.08"] ;
611 -> 615 ;
616 [label="mse = 0.0\nsamples = 1\nvalue = 1391.529"] ;
615 -> 616 ;
617 [label="mse = 0.0\nsamples = 1\nvalue = 1674.632"] ;
615 -> 617 ;
618 [label="X[0] <= 27.5\nmse = 107239.408\nsamples = 4\nvalue = 2616.496"] ;
610 -> 618 ;
619 [label="X[1] <= 34.705\nmse = 6027.362\nsamples = 3\nvalue = 2431.457"] ;
618 -> 619 ;
620 [label="X[3] <= 0.5\nmse = 157.255\nsamples = 2\nvalue = 2485.874"] ;
619 -> 620 ;
621 [label="mse = 0.0\nsamples = 1\nvalue = 2473.334"] ;
620 -> 621 ;
622 [label="mse = 0.0\nsamples = 1\nvalue = 2498.414"] ;
620 -> 622 ;
623 [label="mse = -0.0\nsamples = 1\nvalue = 2322.622"] ;
619 -> 623 ;
624 [label="mse = 0.0\nsamples = 1\nvalue = 3171.615"] ;
618 -> 624 ;
625 [label="X[1] <= 33.825\nmse = 262312.538\nsamples = 4\nvalue = 4083.069"] ;
609 -> 625 ;
626 [label="X[2] <= 2.0\nmse = 24129.59\nsamples = 3\nvalue = 4368.384"] ;
625 -> 626 ;
627 [label="mse = 0.0\nsamples = 1\nvalue = 4151.029"] ;
626 -> 627 ;
628 [label="X[2] <= 3.5\nmse = 761.771\nsamples = 2\nvalue = 4477.062"] ;
626 -> 628 ;
629 [label="mse = 0.0\nsamples = 1\nvalue = 4449.462"] ;
628 -> 629 ;
630 [label="mse = 0.0\nsamples = 1\nvalue = 4504.662"] ;
628 -> 630 ;
631 [label="mse = 0.0\nsamples = 1\nvalue = 3227.121"] ;
625 -> 631 ;
632 [label="X[2] <= 2.5\nmse = 2421294.223\nsamples = 6\nvalue = 6283.0"] ;
608 -> 632 ;
633 [label="X[2] <= 0.5\nmse = 505645.942\nsamples = 3\nvalue = 4921.571"] ;
632 -> 633 ;
634 [label="mse = 0.0\nsamples = 1\nvalue = 3935.18"] ;
633 -> 634 ;
635 [label="X[0] <= 35.5\nmse = 28743.608\nsamples = 2\nvalue = 5414.766"] ;
633 -> 635 ;
636 [label="mse = 0.0\nsamples = 1\nvalue = 5245.227"] ;
635 -> 636 ;
637 [label="mse = 0.0\nsamples = 1\nvalue = 5584.306"] ;
635 -> 637 ;
638 [label="X[3] <= 0.5\nmse = 629964.75\nsamples = 3\nvalue = 7644.429"] ;
632 -> 638 ;
639 [label="X[1] <= 33.66\nmse = 208921.121\nsamples = 2\nvalue = 8139.749"] ;
638 -> 639 ;
640 [label="mse = 0.0\nsamples = 1\nvalue = 7682.67"] ;
639 -> 640 ;
641 [label="mse = 0.0\nsamples = 1\nvalue = 8596.828"] ;
639 -> 641 ;
642 [label="mse = 0.0\nsamples = 1\nvalue = 6653.789"] ;
638 -> 642 ;
643 [label="X[0] <= 32.5\nmse = 173673477.092\nsamples = 128\nvalue = 12820.455"] ;
571 -> 643 ;
644 [label="X[1] <= 34.75\nmse = 151984498.901\nsamples = 79\nvalue = 11204.9"] ;
643 -> 644 ;
645 [label="X[1] <= 34.65\nmse = 157560962.383\nsamples = 74\nvalue = 11745.504"] ;
644 -> 645 ;
646 [label="X[0] <= 29.5\nmse = 151280295.572\nsamples = 73\nvalue = 11407.805"] ;
645 -> 646 ;
647 [label="X[0] <= 22.5\nmse = 164655805.695\nsamples = 59\nvalue = 12428.432"] ;
646 -> 647 ;
648 [label="X[4] <= 1.5\nmse = 152897715.401\nsamples = 23\nvalue = 9323.221"] ;
647 -> 648 ;
649 [label="X[1] <= 33.05\nmse = 45661895.864\nsamples = 9\nvalue = 3986.928"] ;
648 -> 649 ;
650 [label="X[1] <= 32.0\nmse = 59583.667\nsamples = 5\nvalue = 1651.184"] ;
649 -> 650 ;
651 [label="X[1] <= 30.1\nmse = 39867.088\nsamples = 3\nvalue = 1509.025"] ;
650 -> 651 ;
652 [label="mse = 0.0\nsamples = 1\nvalue = 1744.465"] ;
651 -> 652 ;
653 [label="X[1] <= 30.75\nmse = 18226.755\nsamples = 2\nvalue = 1391.306"] ;
651 -> 653 ;
654 [label="mse = 0.0\nsamples = 1\nvalue = 1256.299"] ;
653 -> 654 ;
655 [label="mse = 0.0\nsamples = 1\nvalue = 1526.312"] ;
653 -> 655 ;
656 [label="X[2] <= 0.5\nmse = 13374.46\nsamples = 2\nvalue = 1864.422"] ;
650 -> 656 ;
657 [label="mse = 0.0\nsamples = 1\nvalue = 1748.774"] ;
656 -> 657 ;
658 [label="mse = -0.0\nsamples = 1\nvalue = 1980.07"] ;
656 -> 658 ;
659 [label="X[1] <= 33.6\nmse = 87320627.825\nsamples = 4\nvalue = 6906.608"] ;
649 -> 659 ;
660 [label="mse = 0.0\nsamples = 1\nvalue = 23082.955"] ;
659 -> 660 ;
661 [label="X[1] <= 34.5\nmse = 127858.351\nsamples = 3\nvalue = 1514.493"] ;
659 -> 661 ;
662 [label="X[1] <= 34.25\nmse = 0.043\nsamples = 2\nvalue = 1261.65"] ;
661 -> 662 ;
663 [label="mse = 0.0\nsamples = 1\nvalue = 1261.442"] ;
662 -> 663 ;
664 [label="mse = 0.0\nsamples = 1\nvalue = 1261.859"] ;
662 -> 664 ;
665 [label="mse = 0.0\nsamples = 1\nvalue = 2020.177"] ;
661 -> 665 ;
666 [label="X[3] <= 0.5\nmse = 191760858.2\nsamples = 14\nvalue = 12753.696"] ;
648 -> 666 ;
667 [label="X[1] <= 30.448\nmse = 198973559.586\nsamples = 7\nvalue = 18522.626"] ;
666 -> 667 ;
668 [label="mse = 0.0\nsamples = 1\nvalue = 33907.548"] ;
667 -> 668 ;
669 [label="X[1] <= 32.158\nmse = 186111630.299\nsamples = 6\nvalue = 15958.472"] ;
667 -> 669 ;
670 [label="X[2] <= 1.5\nmse = 104082386.885\nsamples = 3\nvalue = 9635.797"] ;
669 -> 670 ;
671 [label="X[2] <= 0.5\nmse = 87275.547\nsamples = 2\nvalue = 2423.855"] ;
670 -> 671 ;
672 [label="mse = 0.0\nsamples = 1\nvalue = 2128.431"] ;
671 -> 672 ;
673 [label="mse = -0.0\nsamples = 1\nvalue = 2719.28"] ;
671 -> 673 ;
674 [label="mse = 0.0\nsamples = 1\nvalue = 24059.68"] ;
670 -> 674 ;
675 [label="X[4] <= 2.5\nmse = 188188431.986\nsamples = 3\nvalue = 22281.147"] ;
669 -> 675 ;
676 [label="mse = 0.0\nsamples = 1\nvalue = 3925.758"] ;
675 -> 676 ;
677 [label="X[1] <= 32.585\nmse = 29592417.138\nsamples = 2\nvalue = 31458.842"] ;
675 -> 677 ;
678 [label="mse = 0.0\nsamples = 1\nvalue = 36898.733"] ;
677 -> 678 ;
679 [label="mse = -0.0\nsamples = 1\nvalue = 26018.951"] ;
677 -> 679 ;
680 [label="X[4] <= 2.5\nmse = 117987044.949\nsamples = 7\nvalue = 6984.765"] ;
666 -> 680 ;
681 [label="X[0] <= 21.0\nmse = 199727330.613\nsamples = 3\nvalue = 13548.558"] ;
680 -> 681 ;
682 [label="X[1] <= 30.4\nmse = 203929214.387\nsamples = 2\nvalue = 19195.438"] ;
681 -> 682 ;
683 [label="mse = 0.0\nsamples = 1\nvalue = 4915.06"] ;
682 -> 683 ;
684 [label="mse = 0.0\nsamples = 1\nvalue = 33475.817"] ;
682 -> 684 ;
685 [label="mse = 0.0\nsamples = 1\nvalue = 2254.797"] ;
681 -> 685 ;
686 [label="X[2] <= 0.5\nmse = 134904.604\nsamples = 4\nvalue = 2061.921"] ;
680 -> 686 ;
687 [label="X[0] <= 20.0\nmse = 29666.169\nsamples = 3\nvalue = 1868.138"] ;
686 -> 687 ;
688 [label="mse = 0.0\nsamples = 1\nvalue = 1639.563"] ;
687 -> 688 ;
689 [label="X[0] <= 21.5\nmse = 5314.224\nsamples = 2\nvalue = 1982.426"] ;
687 -> 689 ;
690 [label="mse = 0.0\nsamples = 1\nvalue = 1909.527"] ;
689 -> 690 ;
691 [label="mse = 0.0\nsamples = 1\nvalue = 2055.325"] ;
689 -> 691 ;
692 [label="mse = -0.0\nsamples = 1\nvalue = 2643.268"] ;
686 -> 692 ;
693 [label="X[4] <= 2.5\nmse = 162071743.266\nsamples = 36\nvalue = 14412.316"] ;
647 -> 693 ;
694 [label="X[1] <= 30.828\nmse = 188855967.036\nsamples = 21\nvalue = 19213.446"] ;
693 -> 694 ;
695 [label="X[1] <= 30.25\nmse = 105435962.45\nsamples = 9\nvalue = 13697.093"] ;
694 -> 695 ;
696 [label="X[1] <= 30.15\nmse = 88373673.089\nsamples = 5\nvalue = 19399.053"] ;
695 -> 696 ;
697 [label="X[3] <= 0.5\nmse = 44749469.567\nsamples = 4\nvalue = 15773.654"] ;
696 -> 697 ;
698 [label="mse = 0.0\nsamples = 1\nvalue = 4234.927"] ;
697 -> 698 ;
699 [label="X[2] <= 0.5\nmse = 491643.666\nsamples = 3\nvalue = 19619.896"] ;
697 -> 699 ;
700 [label="mse = 0.0\nsamples = 1\nvalue = 18648.422"] ;
699 -> 700 ;
701 [label="X[4] <= 1.5\nmse = 29644.146\nsamples = 2\nvalue = 20105.633"] ;
699 -> 701 ;
702 [label="mse = 0.0\nsamples = 1\nvalue = 19933.458"] ;
701 -> 702 ;
703 [label="mse = -0.0\nsamples = 1\nvalue = 20277.808"] ;
701 -> 703 ;
704 [label="mse = -0.0\nsamples = 1\nvalue = 33900.653"] ;
696 -> 704 ;
705 [label="X[3] <= 0.5\nmse = 35322843.251\nsamples = 4\nvalue = 6569.643"] ;
695 -> 705 ;
706 [label="mse = 0.0\nsamples = 1\nvalue = 16796.412"] ;
705 -> 706 ;
707 [label="X[1] <= 30.4\nmse = 614103.164\nsamples = 3\nvalue = 3160.72"] ;
705 -> 707 ;
708 [label="mse = 0.0\nsamples = 1\nvalue = 4260.744"] ;
707 -> 708 ;
709 [label="X[4] <= 1.5\nmse = 13615.751\nsamples = 2\nvalue = 2610.709"] ;
707 -> 709 ;
710 [label="mse = 0.0\nsamples = 1\nvalue = 2494.022"] ;
709 -> 710 ;
711 [label="mse = -0.0\nsamples = 1\nvalue = 2727.395"] ;
709 -> 711 ;
712 [label="X[1] <= 32.062\nmse = 211481408.132\nsamples = 12\nvalue = 23350.71"] ;
694 -> 712 ;
713 [label="X[1] <= 31.565\nmse = 653842.236\nsamples = 4\nvalue = 34862.075"] ;
712 -> 713 ;
714 [label="X[0] <= 25.5\nmse = 89123.353\nsamples = 3\nvalue = 34419.733"] ;
713 -> 714 ;
715 [label="X[3] <= 0.5\nmse = 1926.347\nsamples = 2\nvalue = 34210.163"] ;
714 -> 715 ;
716 [label="mse = 0.0\nsamples = 1\nvalue = 34166.273"] ;
715 -> 716 ;
717 [label="mse = -0.0\nsamples = 1\nvalue = 34254.053"] ;
715 -> 717 ;
718 [label="mse = 0.0\nsamples = 1\nvalue = 34838.873"] ;
714 -> 718 ;
719 [label="mse = 0.0\nsamples = 1\nvalue = 36189.102"] ;
713 -> 719 ;
720 [label="X[2] <= 2.5\nmse = 217511541.569\nsamples = 8\nvalue = 17595.027"] ;
712 -> 720 ;
721 [label="X[3] <= 0.5\nmse = 210367266.16\nsamples = 6\nvalue = 22053.636"] ;
720 -> 721 ;
722 [label="X[4] <= 1.5\nmse = 61869813.912\nsamples = 2\nvalue = 11037.755"] ;
721 -> 722 ;
723 [label="mse = 0.0\nsamples = 1\nvalue = 3172.018"] ;
722 -> 723 ;
724 [label="mse = 0.0\nsamples = 1\nvalue = 18903.491"] ;
722 -> 724 ;
725 [label="X[1] <= 32.595\nmse = 193603757.596\nsamples = 4\nvalue = 27561.577"] ;
721 -> 725 ;
726 [label="mse = 0.0\nsamples = 1\nvalue = 3490.549"] ;
725 -> 726 ;
727 [label="X[1] <= 32.8\nmse = 620838.854\nsamples = 3\nvalue = 35585.253"] ;
725 -> 727 ;
728 [label="mse = 0.0\nsamples = 1\nvalue = 34472.841"] ;
727 -> 728 ;
729 [label="X[1] <= 33.65\nmse = 3162.938\nsamples = 2\nvalue = 36141.459"] ;
727 -> 729 ;
730 [label="mse = 0.0\nsamples = 1\nvalue = 36085.219"] ;
729 -> 730 ;
731 [label="mse = -0.0\nsamples = 1\nvalue = 36197.699"] ;
729 -> 731 ;
732 [label="X[0] <= 25.0\nmse = 394032.493\nsamples = 2\nvalue = 4219.2"] ;
720 -> 732 ;
733 [label="mse = 0.0\nsamples = 1\nvalue = 3591.48"] ;
732 -> 733 ;
734 [label="mse = 0.0\nsamples = 1\nvalue = 4846.92"] ;
732 -> 734 ;
735 [label="X[0] <= 26.5\nmse = 47122991.615\nsamples = 15\nvalue = 7690.735"] ;
693 -> 735 ;
736 [label="X[2] <= 2.0\nmse = 423210.387\nsamples = 6\nvalue = 3223.018"] ;
735 -> 736 ;
737 [label="X[2] <= 0.5\nmse = 40765.076\nsamples = 5\nvalue = 2944.006"] ;
736 -> 737 ;
738 [label="X[1] <= 33.915\nmse = 12997.263\nsamples = 4\nvalue = 2856.875"] ;
737 -> 738 ;
739 [label="X[3] <= 0.5\nmse = 5239.297\nsamples = 3\nvalue = 2801.897"] ;
738 -> 739 ;
740 [label="X[1] <= 31.635\nmse = 5.65\nsamples = 2\nvalue = 2853.061"] ;
739 -> 740 ;
741 [label="mse = 0.0\nsamples = 1\nvalue = 2850.684"] ;
740 -> 741 ;
742 [label="mse = -0.0\nsamples = 1\nvalue = 2855.438"] ;
740 -> 742 ;
743 [label="mse = 0.0\nsamples = 1\nvalue = 2699.568"] ;
739 -> 743 ;
744 [label="mse = -0.0\nsamples = 1\nvalue = 3021.809"] ;
738 -> 744 ;
745 [label="mse = 0.0\nsamples = 1\nvalue = 3292.53"] ;
737 -> 745 ;
746 [label="mse = 0.0\nsamples = 1\nvalue = 4618.08"] ;
736 -> 746 ;
747 [label="X[1] <= 33.25\nmse = 56077854.052\nsamples = 9\nvalue = 10669.213"] ;
735 -> 747 ;
748 [label="X[1] <= 30.637\nmse = 43073021.348\nsamples = 7\nvalue = 8129.603"] ;
747 -> 748 ;
749 [label="X[3] <= 0.5\nmse = 104612.269\nsamples = 2\nvalue = 18481.314"] ;
748 -> 749 ;
750 [label="mse = 0.0\nsamples = 1\nvalue = 18804.752"] ;
749 -> 750 ;
751 [label="mse = -0.0\nsamples = 1\nvalue = 18157.876"] ;
749 -> 751 ;
752 [label="X[1] <= 31.065\nmse = 251952.326\nsamples = 5\nvalue = 3988.919"] ;
748 -> 752 ;
753 [label="mse = 0.0\nsamples = 1\nvalue = 3062.508"] ;
752 -> 753 ;
754 [label="X[0] <= 28.0\nmse = 46741.297\nsamples = 4\nvalue = 4220.522"] ;
752 -> 754 ;
755 [label="X[1] <= 32.205\nmse = 2633.794\nsamples = 2\nvalue = 4007.392"] ;
754 -> 755 ;
756 [label="mse = 0.0\nsamples = 1\nvalue = 3956.071"] ;
755 -> 756 ;
757 [label="mse = -0.0\nsamples = 1\nvalue = 4058.712"] ;
755 -> 757 ;
758 [label="X[1] <= 31.92\nmse = 0.07\nsamples = 2\nvalue = 4433.652"] ;
754 -> 758 ;
759 [label="mse = 0.0\nsamples = 1\nvalue = 4433.388"] ;
758 -> 759 ;
760 [label="mse = 0.0\nsamples = 1\nvalue = 4433.916"] ;
758 -> 760 ;
761 [label="X[1] <= 33.583\nmse = 13338.198\nsamples = 2\nvalue = 19557.845"] ;
747 -> 761 ;
762 [label="mse = 0.0\nsamples = 1\nvalue = 19442.354"] ;
761 -> 762 ;
763 [label="mse = -0.0\nsamples = 1\nvalue = 19673.336"] ;
761 -> 763 ;
764 [label="X[1] <= 33.203\nmse = 72021692.131\nsamples = 14\nvalue = 7106.59"] ;
646 -> 764 ;
765 [label="X[2] <= 1.5\nmse = 528202.553\nsamples = 12\nvalue = 4785.168"] ;
764 -> 765 ;
766 [label="X[3] <= 0.5\nmse = 227246.305\nsamples = 7\nvalue = 4282.455"] ;
765 -> 766 ;
767 [label="X[0] <= 31.5\nmse = 146673.876\nsamples = 4\nvalue = 4595.895"] ;
766 -> 767 ;
768 [label="X[1] <= 32.54\nmse = 59818.331\nsamples = 3\nvalue = 4411.676"] ;
767 -> 768 ;
769 [label="X[4] <= 1.5\nmse = 9730.575\nsamples = 2\nvalue = 4248.38"] ;
768 -> 769 ;
770 [label="mse = 0.0\nsamples = 1\nvalue = 4149.736"] ;
769 -> 770 ;
771 [label="mse = 0.0\nsamples = 1\nvalue = 4347.023"] ;
769 -> 771 ;
772 [label="mse = 0.0\nsamples = 1\nvalue = 4738.268"] ;
768 -> 772 ;
773 [label="mse = 0.0\nsamples = 1\nvalue = 5148.553"] ;
767 -> 773 ;
774 [label="X[0] <= 31.5\nmse = 29025.442\nsamples = 3\nvalue = 3864.534"] ;
766 -> 774 ;
775 [label="X[4] <= 1.5\nmse = 9841.954\nsamples = 2\nvalue = 3758.553"] ;
774 -> 775 ;
776 [label="mse = 0.0\nsamples = 1\nvalue = 3659.346"] ;
775 -> 776 ;
777 [label="mse = -0.0\nsamples = 1\nvalue = 3857.759"] ;
775 -> 777 ;
778 [label="mse = 0.0\nsamples = 1\nvalue = 4076.497"] ;
774 -> 778 ;
779 [label="X[1] <= 30.648\nmse = 100400.746\nsamples = 5\nvalue = 5488.966"] ;
765 -> 779 ;
780 [label="mse = 0.0\nsamples = 1\nvalue = 6113.231"] ;
779 -> 780 ;
781 [label="X[0] <= 31.5\nmse = 3717.514\nsamples = 4\nvalue = 5332.9"] ;
779 -> 781 ;
782 [label="X[3] <= 0.5\nmse = 2156.466\nsamples = 3\nvalue = 5359.358"] ;
781 -> 782 ;
783 [label="X[2] <= 2.5\nmse = 0.765\nsamples = 2\nvalue = 5326.526"] ;
782 -> 783 ;
784 [label="mse = 0.0\nsamples = 1\nvalue = 5327.4"] ;
783 -> 784 ;
785 [label="mse = -0.0\nsamples = 1\nvalue = 5325.651"] ;
783 -> 785 ;
786 [label="mse = 0.0\nsamples = 1\nvalue = 5425.023"] ;
782 -> 786 ;
787 [label="mse = -0.0\nsamples = 1\nvalue = 5253.524"] ;
781 -> 787 ;
788 [label="X[1] <= 33.725\nmse = 274644539.537\nsamples = 2\nvalue = 21035.125"] ;
764 -> 788 ;
789 [label="mse = 0.0\nsamples = 1\nvalue = 37607.528"] ;
788 -> 789 ;
790 [label="mse = 0.0\nsamples = 1\nvalue = 4462.722"] ;
788 -> 790 ;
791 [label="mse = -0.0\nsamples = 1\nvalue = 36397.576"] ;
645 -> 791 ;
792 [label="X[0] <= 20.5\nmse = 1112391.834\nsamples = 5\nvalue = 3203.956"] ;
644 -> 792 ;
793 [label="mse = 0.0\nsamples = 1\nvalue = 1263.249"] ;
792 -> 793 ;
794 [label="X[4] <= 2.5\nmse = 213507.387\nsamples = 4\nvalue = 3689.133"] ;
792 -> 794 ;
795 [label="X[2] <= 0.5\nmse = 16014.924\nsamples = 3\nvalue = 3429.97"] ;
794 -> 795 ;
796 [label="mse = 0.0\nsamples = 1\nvalue = 3268.847"] ;
795 -> 796 ;
797 [label="X[2] <= 2.0\nmse = 4551.864\nsamples = 2\nvalue = 3510.532"] ;
795 -> 797 ;
798 [label="mse = 0.0\nsamples = 1\nvalue = 3577.999"] ;
797 -> 798 ;
799 [label="mse = 0.0\nsamples = 1\nvalue = 3443.064"] ;
797 -> 799 ;
800 [label="mse = 0.0\nsamples = 1\nvalue = 4466.621"] ;
794 -> 800 ;
801 [label="X[0] <= 37.5\nmse = 197649127.513\nsamples = 49\nvalue = 15425.125"] ;
643 -> 801 ;
802 [label="X[2] <= 1.5\nmse = 248498446.628\nsamples = 27\nvalue = 18897.245"] ;
801 -> 802 ;
803 [label="X[0] <= 34.5\nmse = 214989239.168\nsamples = 21\nvalue = 16156.29"] ;
802 -> 803 ;
804 [label="X[1] <= 32.36\nmse = 229274814.466\nsamples = 8\nvalue = 23886.71"] ;
803 -> 804 ;
805 [label="X[1] <= 30.505\nmse = 12809777.451\nsamples = 3\nvalue = 39045.798"] ;
804 -> 805 ;
806 [label="mse = 0.0\nsamples = 1\nvalue = 43943.876"] ;
805 -> 806 ;
807 [label="X[1] <= 31.36\nmse = 1221286.678\nsamples = 2\nvalue = 36596.758"] ;
805 -> 807 ;
808 [label="mse = 0.0\nsamples = 1\nvalue = 35491.64"] ;
807 -> 808 ;
809 [label="mse = 0.0\nsamples = 1\nvalue = 37701.877"] ;
807 -> 809 ;
810 [label="X[4] <= 1.5\nmse = 138547816.751\nsamples = 5\nvalue = 14791.257"] ;
804 -> 810 ;
811 [label="X[2] <= 0.5\nmse = 129061046.931\nsamples = 2\nvalue = 25718.868"] ;
810 -> 811 ;
812 [label="mse = 0.0\nsamples = 1\nvalue = 37079.372"] ;
811 -> 812 ;
813 [label="mse = 0.0\nsamples = 1\nvalue = 14358.364"] ;
811 -> 813 ;
814 [label="X[0] <= 33.5\nmse = 12191578.29\nsamples = 3\nvalue = 7506.184"] ;
810 -> 814 ;
815 [label="mse = 0.0\nsamples = 1\nvalue = 12404.879"] ;
814 -> 815 ;
816 [label="X[1] <= 33.962\nmse = 289454.357\nsamples = 2\nvalue = 5056.836"] ;
814 -> 816 ;
817 [label="mse = 0.0\nsamples = 1\nvalue = 5594.846"] ;
816 -> 817 ;
818 [label="mse = -0.0\nsamples = 1\nvalue = 4518.826"] ;
816 -> 818 ;
819 [label="X[0] <= 36.5\nmse = 146792329.913\nsamples = 13\nvalue = 11399.109"] ;
803 -> 819 ;
820 [label="X[4] <= 2.0\nmse = 118705.202\nsamples = 7\nvalue = 5094.73"] ;
819 -> 820 ;
821 [label="X[3] <= 0.5\nmse = 126354.785\nsamples = 4\nvalue = 4910.029"] ;
820 -> 821 ;
822 [label="X[1] <= 32.9\nmse = 6.975\nsamples = 2\nvalue = 5243.406"] ;
821 -> 822 ;
823 [label="mse = 0.0\nsamples = 1\nvalue = 5240.765"] ;
822 -> 823 ;
824 [label="mse = -0.0\nsamples = 1\nvalue = 5246.047"] ;
822 -> 824 ;
825 [label="X[0] <= 35.5\nmse = 30421.813\nsamples = 2\nvalue = 4576.652"] ;
821 -> 825 ;
826 [label="mse = 0.0\nsamples = 1\nvalue = 4751.07"] ;
825 -> 826 ;
827 [label="mse = -0.0\nsamples = 1\nvalue = 4402.233"] ;
825 -> 827 ;
828 [label="X[2] <= 0.5\nmse = 2371.129\nsamples = 3\nvalue = 5340.999"] ;
820 -> 828 ;
829 [label="mse = 0.0\nsamples = 1\nvalue = 5272.176"] ;
828 -> 829 ;
830 [label="X[1] <= 32.347\nmse = 4.189\nsamples = 2\nvalue = 5375.411"] ;
828 -> 830 ;
831 [label="mse = 0.0\nsamples = 1\nvalue = 5373.364"] ;
830 -> 831 ;
832 [label="mse = 0.0\nsamples = 1\nvalue = 5377.458"] ;
830 -> 832 ;
833 [label="X[4] <= 2.5\nmse = 217444563.743\nsamples = 6\nvalue = 18754.217"] ;
819 -> 833 ;
834 [label="X[4] <= 1.5\nmse = 195657172.415\nsamples = 4\nvalue = 25346.2"] ;
833 -> 834 ;
835 [label="X[1] <= 30.3\nmse = 62203551.648\nsamples = 2\nvalue = 12533.682"] ;
834 -> 835 ;
836 [label="mse = 0.0\nsamples = 1\nvalue = 20420.605"] ;
835 -> 836 ;
837 [label="mse = 0.0\nsamples = 1\nvalue = 4646.759"] ;
835 -> 837 ;
838 [label="X[2] <= 0.5\nmse = 789551.136\nsamples = 2\nvalue = 38158.718"] ;
834 -> 838 ;
839 [label="mse = 0.0\nsamples = 1\nvalue = 37270.151"] ;
838 -> 839 ;
840 [label="mse = 0.0\nsamples = 1\nvalue = 39047.285"] ;
838 -> 840 ;
841 [label="X[3] <= 0.5\nmse = 293875.852\nsamples = 2\nvalue = 5570.25"] ;
833 -> 841 ;
842 [label="mse = 0.0\nsamples = 1\nvalue = 6112.353"] ;
841 -> 842 ;
843 [label="mse = 0.0\nsamples = 1\nvalue = 5028.147"] ;
841 -> 843 ;
844 [label="X[4] <= 2.0\nmse = 247453507.307\nsamples = 6\nvalue = 28490.589"] ;
802 -> 844 ;
845 [label="X[0] <= 36.5\nmse = 584486.595\nsamples = 3\nvalue = 39478.08"] ;
844 -> 845 ;
846 [label="mse = 0.0\nsamples = 1\nvalue = 38415.474"] ;
845 -> 846 ;
847 [label="X[3] <= 0.5\nmse = 29881.79\nsamples = 2\nvalue = 40009.382"] ;
845 -> 847 ;
848 [label="mse = 0.0\nsamples = 1\nvalue = 39836.519"] ;
847 -> 848 ;
849 [label="mse = 0.0\nsamples = 1\nvalue = 40182.246"] ;
847 -> 849 ;
850 [label="X[3] <= 0.5\nmse = 252872622.057\nsamples = 3\nvalue = 17503.098"] ;
844 -> 850 ;
851 [label="mse = 0.0\nsamples = 1\nvalue = 39983.426"] ;
850 -> 851 ;
852 [label="X[1] <= 32.823\nmse = 285080.15\nsamples = 2\nvalue = 6262.934"] ;
850 -> 852 ;
853 [label="mse = 0.0\nsamples = 1\nvalue = 6796.863"] ;
852 -> 853 ;
854 [label="mse = 0.0\nsamples = 1\nvalue = 5729.005"] ;
852 -> 854 ;
855 [label="X[1] <= 30.89\nmse = 102289454.059\nsamples = 22\nvalue = 11163.886"] ;
801 -> 855 ;
856 [label="X[1] <= 30.685\nmse = 142901620.741\nsamples = 6\nvalue = 17599.622"] ;
855 -> 856 ;
857 [label="X[2] <= 1.5\nmse = 55345330.152\nsamples = 5\nvalue = 13200.065"] ;
856 -> 857 ;
858 [label="X[4] <= 1.5\nmse = 25282.868\nsamples = 2\nvalue = 22303.038"] ;
857 -> 858 ;
859 [label="mse = 0.0\nsamples = 1\nvalue = 22144.032"] ;
858 -> 859 ;
860 [label="mse = -0.0\nsamples = 1\nvalue = 22462.044"] ;
858 -> 860 ;
861 [label="X[1] <= 30.055\nmse = 154117.547\nsamples = 3\nvalue = 7131.416"] ;
857 -> 861 ;
862 [label="mse = 0.0\nsamples = 1\nvalue = 6600.361"] ;
861 -> 862 ;
863 [label="X[0] <= 39.5\nmse = 19661.761\nsamples = 2\nvalue = 7396.943"] ;
861 -> 863 ;
864 [label="mse = 0.0\nsamples = 1\nvalue = 7537.164"] ;
863 -> 864 ;
865 [label="mse = 0.0\nsamples = 1\nvalue = 7256.723"] ;
863 -> 865 ;
866 [label="mse = 0.0\nsamples = 1\nvalue = 39597.407"] ;
856 -> 866 ;
867 [label="X[4] <= 2.5\nmse = 65703377.142\nsamples = 16\nvalue = 8750.485"] ;
855 -> 867 ;
868 [label="X[4] <= 1.5\nmse = 749786.371\nsamples = 12\nvalue = 6655.428"] ;
867 -> 868 ;
869 [label="X[2] <= 2.5\nmse = 366215.6\nsamples = 10\nvalue = 6368.743"] ;
868 -> 869 ;
870 [label="X[2] <= 1.5\nmse = 179189.584\nsamples = 8\nvalue = 6134.005"] ;
869 -> 870 ;
871 [label="X[0] <= 38.5\nmse = 86897.391\nsamples = 5\nvalue = 5908.427"] ;
870 -> 871 ;
872 [label="mse = 0.0\nsamples = 1\nvalue = 5488.262"] ;
871 -> 872 ;
873 [label="X[1] <= 32.65\nmse = 53453.522\nsamples = 4\nvalue = 6013.468"] ;
871 -> 873 ;
874 [label="X[1] <= 32.05\nmse = 680.453\nsamples = 2\nvalue = 6212.212"] ;
873 -> 874 ;
875 [label="mse = 0.0\nsamples = 1\nvalue = 6186.127"] ;
874 -> 875 ;
876 [label="mse = 0.0\nsamples = 1\nvalue = 6238.298"] ;
874 -> 876 ;
877 [label="X[0] <= 40.5\nmse = 27227.64\nsamples = 2\nvalue = 5814.723"] ;
873 -> 877 ;
878 [label="mse = 0.0\nsamples = 1\nvalue = 5649.715"] ;
877 -> 878 ;
879 [label="mse = -0.0\nsamples = 1\nvalue = 5979.731"] ;
877 -> 879 ;
880 [label="X[1] <= 33.45\nmse = 106850.866\nsamples = 3\nvalue = 6509.97"] ;
870 -> 880 ;
881 [label="mse = 0.0\nsamples = 1\nvalue = 6875.961"] ;
880 -> 881 ;
882 [label="X[3] <= 0.5\nmse = 59814.24\nsamples = 2\nvalue = 6326.974"] ;
880 -> 882 ;
883 [label="mse = 0.0\nsamples = 1\nvalue = 6571.544"] ;
882 -> 883 ;
884 [label="mse = -0.0\nsamples = 1\nvalue = 6082.405"] ;
882 -> 884 ;
885 [label="X[1] <= 34.7\nmse = 12282.735\nsamples = 2\nvalue = 7307.694"] ;
869 -> 885 ;
886 [label="mse = 0.0\nsamples = 1\nvalue = 7418.522"] ;
885 -> 886 ;
887 [label="mse = 0.0\nsamples = 1\nvalue = 7196.867"] ;
885 -> 887 ;
888 [label="X[2] <= 2.0\nmse = 201992.269\nsamples = 2\nvalue = 8088.853"] ;
868 -> 888 ;
889 [label="mse = 0.0\nsamples = 1\nvalue = 7639.417"] ;
888 -> 889 ;
890 [label="mse = 0.0\nsamples = 1\nvalue = 8538.288"] ;
888 -> 890 ;
891 [label="X[2] <= 1.0\nmse = 207892982.776\nsamples = 4\nvalue = 15035.656"] ;
867 -> 891 ;
892 [label="X[1] <= 32.11\nmse = 11262.293\nsamples = 2\nvalue = 6464.9"] ;
891 -> 892 ;
893 [label="mse = 0.0\nsamples = 1\nvalue = 6358.776"] ;
892 -> 893 ;
894 [label="mse = -0.0\nsamples = 1\nvalue = 6571.024"] ;
892 -> 894 ;
895 [label="X[1] <= 32.348\nmse = 268858992.865\nsamples = 2\nvalue = 23606.412"] ;
891 -> 895 ;
896 [label="mse = 0.0\nsamples = 1\nvalue = 7209.492"] ;
895 -> 896 ;
897 [label="mse = 0.0\nsamples = 1\nvalue = 40003.332"] ;
895 -> 897 ;
898 [label="X[1] <= 35.612\nmse = 241219639.085\nsamples = 92\nvalue = 14500.475"] ;
570 -> 898 ;
899 [label="X[0] <= 21.5\nmse = 324248827.973\nsamples = 5\nvalue = 34757.832"] ;
898 -> 899 ;
900 [label="mse = 0.0\nsamples = 1\nvalue = 1532.47"] ;
899 -> 900 ;
901 [label="X[4] <= 2.0\nmse = 60334564.731\nsamples = 4\nvalue = 43064.173"] ;
899 -> 901 ;
902 [label="X[2] <= 1.0\nmse = 15684050.828\nsamples = 3\nvalue = 39040.43"] ;
901 -> 902 ;
903 [label="X[4] <= 0.5\nmse = 465588.353\nsamples = 2\nvalue = 36267.916"] ;
902 -> 903 ;
904 [label="mse = 0.0\nsamples = 1\nvalue = 36950.257"] ;
903 -> 904 ;
905 [label="mse = 0.0\nsamples = 1\nvalue = 35585.576"] ;
903 -> 905 ;
906 [label="mse = -0.0\nsamples = 1\nvalue = 44585.456"] ;
902 -> 906 ;
907 [label="mse = -0.0\nsamples = 1\nvalue = 55135.402"] ;
901 -> 907 ;
908 [label="X[0] <= 24.5\nmse = 211508510.279\nsamples = 87\nvalue = 13336.259"] ;
898 -> 908 ;
909 [label="X[2] <= 0.5\nmse = 314333643.234\nsamples = 21\nvalue = 17782.531"] ;
908 -> 909 ;
910 [label="X[1] <= 43.395\nmse = 258170538.365\nsamples = 11\nvalue = 11814.673"] ;
909 -> 910 ;
911 [label="X[3] <= 0.5\nmse = 198312931.926\nsamples = 10\nvalue = 9023.866"] ;
910 -> 911 ;
912 [label="X[1] <= 38.965\nmse = 53407.475\nsamples = 4\nvalue = 2117.219"] ;
911 -> 912 ;
913 [label="X[1] <= 35.86\nmse = 14286.171\nsamples = 3\nvalue = 2236.512"] ;
912 -> 913 ;
914 [label="mse = 0.0\nsamples = 1\nvalue = 2404.734"] ;
913 -> 914 ;
915 [label="X[0] <= 20.5\nmse = 205.368\nsamples = 2\nvalue = 2152.401"] ;
913 -> 915 ;
916 [label="mse = 0.0\nsamples = 1\nvalue = 2138.071"] ;
915 -> 916 ;
917 [label="mse = 0.0\nsamples = 1\nvalue = 2166.732"] ;
915 -> 917 ;
918 [label="mse = -0.0\nsamples = 1\nvalue = 1759.338"] ;
912 -> 918 ;
919 [label="X[0] <= 20.0\nmse = 277483977.087\nsamples = 6\nvalue = 13628.297"] ;
911 -> 919 ;
920 [label="mse = 0.0\nsamples = 1\nvalue = 36219.405"] ;
919 -> 920 ;
921 [label="X[0] <= 23.5\nmse = 210494810.239\nsamples = 5\nvalue = 9110.075"] ;
919 -> 921 ;
922 [label="X[1] <= 38.18\nmse = 9491.933\nsamples = 3\nvalue = 1812.399"] ;
921 -> 922 ;
923 [label="mse = 0.0\nsamples = 1\nvalue = 1917.318"] ;
922 -> 923 ;
924 [label="X[0] <= 22.5\nmse = 5981.855\nsamples = 2\nvalue = 1759.939"] ;
922 -> 924 ;
925 [label="mse = 0.0\nsamples = 1\nvalue = 1682.597"] ;
924 -> 925 ;
926 [label="mse = 0.0\nsamples = 1\nvalue = 1837.282"] ;
924 -> 926 ;
927 [label="X[1] <= 38.005\nmse = 326512487.835\nsamples = 2\nvalue = 20056.59"] ;
921 -> 927 ;
928 [label="mse = 0.0\nsamples = 1\nvalue = 1986.933"] ;
927 -> 928 ;
929 [label="mse = 0.0\nsamples = 1\nvalue = 38126.246"] ;
927 -> 929 ;
930 [label="mse = -0.0\nsamples = 1\nvalue = 39722.746"] ;
910 -> 930 ;
931 [label="X[1] <= 46.565\nmse = 293841659.664\nsamples = 10\nvalue = 24347.174"] ;
909 -> 931 ;
932 [label="X[0] <= 19.5\nmse = 267230302.679\nsamples = 9\nvalue = 26781.52"] ;
931 -> 932 ;
933 [label="mse = 0.0\nsamples = 1\nvalue = 2730.108"] ;
932 -> 933 ;
934 [label="X[2] <= 2.5\nmse = 219286683.418\nsamples = 8\nvalue = 29787.947"] ;
932 -> 934 ;
935 [label="X[1] <= 41.075\nmse = 1723196.267\nsamples = 5\nvalue = 38482.001"] ;
934 -> 935 ;
936 [label="X[4] <= 0.5\nmse = 320544.167\nsamples = 4\nvalue = 37876.452"] ;
935 -> 936 ;
937 [label="X[1] <= 37.345\nmse = 25485.808\nsamples = 2\nvalue = 37324.807"] ;
936 -> 937 ;
938 [label="mse = 0.0\nsamples = 1\nvalue = 37484.449"] ;
937 -> 938 ;
939 [label="mse = 0.0\nsamples = 1\nvalue = 37165.164"] ;
937 -> 939 ;
940 [label="X[4] <= 1.5\nmse = 6977.453\nsamples = 2\nvalue = 38428.097"] ;
936 -> 940 ;
941 [label="mse = 0.0\nsamples = 1\nvalue = 38344.566"] ;
940 -> 941 ;
942 [label="mse = -0.0\nsamples = 1\nvalue = 38511.628"] ;
940 -> 942 ;
943 [label="mse = -0.0\nsamples = 1\nvalue = 40904.2"] ;
935 -> 943 ;
944 [label="X[1] <= 36.312\nmse = 245952139.116\nsamples = 3\nvalue = 15297.857"] ;
934 -> 944 ;
945 [label="mse = 0.0\nsamples = 1\nvalue = 37465.344"] ;
944 -> 945 ;
946 [label="X[2] <= 4.0\nmse = 380093.211\nsamples = 2\nvalue = 4214.113"] ;
944 -> 946 ;
947 [label="mse = 0.0\nsamples = 1\nvalue = 3597.596"] ;
946 -> 947 ;
948 [label="mse = -0.0\nsamples = 1\nvalue = 4830.63"] ;
946 -> 948 ;
949 [label="mse = -0.0\nsamples = 1\nvalue = 2438.055"] ;
931 -> 949 ;
950 [label="X[1] <= 47.065\nmse = 170499740.532\nsamples = 66\nvalue = 11921.536"] ;
908 -> 950 ;
951 [label="X[0] <= 34.5\nmse = 154860088.101\nsamples = 65\nvalue = 11395.506"] ;
950 -> 951 ;
952 [label="X[1] <= 36.7\nmse = 117744448.408\nsamples = 37\nvalue = 9125.964"] ;
951 -> 952 ;
953 [label="X[1] <= 35.948\nmse = 248715394.323\nsamples = 6\nvalue = 15690.242"] ;
952 -> 953 ;
954 [label="X[0] <= 29.0\nmse = 1007018.529\nsamples = 3\nvalue = 3914.935"] ;
953 -> 954 ;
955 [label="mse = 0.0\nsamples = 1\nvalue = 2534.394"] ;
954 -> 955 ;
956 [label="X[2] <= 1.0\nmse = 81107.808\nsamples = 2\nvalue = 4605.205"] ;
954 -> 956 ;
957 [label="mse = 0.0\nsamples = 1\nvalue = 4320.411"] ;
956 -> 957 ;
958 [label="mse = 0.0\nsamples = 1\nvalue = 4890.0"] ;
956 -> 958 ;
959 [label="X[4] <= 1.5\nmse = 219108042.959\nsamples = 3\nvalue = 27465.549"] ;
953 -> 959 ;
960 [label="X[0] <= 29.0\nmse = 621812.522\nsamples = 2\nvalue = 37922.449"] ;
959 -> 960 ;
961 [label="mse = 0.0\nsamples = 1\nvalue = 37133.898"] ;
960 -> 961 ;
962 [label="mse = 0.0\nsamples = 1\nvalue = 38711.0"] ;
960 -> 962 ;
963 [label="mse = -0.0\nsamples = 1\nvalue = 6551.75"] ;
959 -> 963 ;
964 [label="X[2] <= 0.5\nmse = 82441097.849\nsamples = 31\nvalue = 7855.458"] ;
952 -> 964 ;
965 [label="X[1] <= 41.728\nmse = 202873966.178\nsamples = 5\nvalue = 13474.248"] ;
964 -> 965 ;
966 [label="X[1] <= 41.212\nmse = 40102015.832\nsamples = 4\nvalue = 6939.871"] ;
965 -> 966 ;
967 [label="X[0] <= 30.0\nmse = 286074.433\nsamples = 3\nvalue = 3293.527"] ;
966 -> 967 ;
968 [label="X[1] <= 39.123\nmse = 65471.952\nsamples = 2\nvalue = 2945.37"] ;
967 -> 968 ;
969 [label="mse = 0.0\nsamples = 1\nvalue = 2689.495"] ;
968 -> 969 ;
970 [label="mse = -0.0\nsamples = 1\nvalue = 3201.245"] ;
968 -> 970 ;
971 [label="mse = -0.0\nsamples = 1\nvalue = 3989.841"] ;
967 -> 971 ;
972 [label="mse = 0.0\nsamples = 1\nvalue = 17878.901"] ;
966 -> 972 ;
973 [label="mse = 0.0\nsamples = 1\nvalue = 39611.758"] ;
965 -> 973 ;
974 [label="X[0] <= 29.5\nmse = 52042065.027\nsamples = 26\nvalue = 6774.922"] ;
964 -> 974 ;
975 [label="X[2] <= 2.5\nmse = 414317.111\nsamples = 8\nvalue = 3660.956"] ;
974 -> 975 ;
976 [label="X[2] <= 1.5\nmse = 117192.448\nsamples = 7\nvalue = 3449.914"] ;
975 -> 976 ;
977 [label="X[1] <= 44.465\nmse = 64797.514\nsamples = 6\nvalue = 3348.546"] ;
976 -> 977 ;
978 [label="X[0] <= 25.5\nmse = 35121.765\nsamples = 5\nvalue = 3432.843"] ;
977 -> 978 ;
979 [label="mse = 0.0\nsamples = 1\nvalue = 3238.436"] ;
978 -> 979 ;
980 [label="X[4] <= 0.5\nmse = 32091.542\nsamples = 4\nvalue = 3481.445"] ;
978 -> 980 ;
981 [label="X[3] <= 0.5\nmse = 21826.251\nsamples = 2\nvalue = 3619.147"] ;
980 -> 981 ;
982 [label="mse = 0.0\nsamples = 1\nvalue = 3766.884"] ;
981 -> 982 ;
983 [label="mse = -0.0\nsamples = 1\nvalue = 3471.41"] ;
981 -> 983 ;
984 [label="X[3] <= 0.5\nmse = 4433.096\nsamples = 2\nvalue = 3343.743"] ;
980 -> 984 ;
985 [label="mse = 0.0\nsamples = 1\nvalue = 3410.324"] ;
984 -> 985 ;
986 [label="mse = -0.0\nsamples = 1\nvalue = 3277.161"] ;
984 -> 986 ;
987 [label="mse = 0.0\nsamples = 1\nvalue = 2927.065"] ;
977 -> 987 ;
988 [label="mse = 0.0\nsamples = 1\nvalue = 4058.116"] ;
976 -> 988 ;
989 [label="mse = 0.0\nsamples = 1\nvalue = 5138.257"] ;
975 -> 989 ;
990 [label="X[0] <= 30.5\nmse = 68762636.362\nsamples = 18\nvalue = 8158.907"] ;
974 -> 990 ;
991 [label="X[1] <= 40.975\nmse = 182813020.879\nsamples = 5\nvalue = 14530.629"] ;
990 -> 991 ;
992 [label="X[4] <= 1.5\nmse = 193076562.902\nsamples = 3\nvalue = 21211.114"] ;
991 -> 992 ;
993 [label="X[4] <= 0.5\nmse = 102802059.359\nsamples = 2\nvalue = 29102.307"] ;
992 -> 993 ;
994 [label="mse = 0.0\nsamples = 1\nvalue = 18963.172"] ;
993 -> 994 ;
995 [label="mse = 0.0\nsamples = 1\nvalue = 39241.442"] ;
993 -> 995 ;
996 [label="mse = -0.0\nsamples = 1\nvalue = 5428.728"] ;
992 -> 996 ;
997 [label="X[1] <= 43.67\nmse = 59406.994\nsamples = 2\nvalue = 4509.901"] ;
991 -> 997 ;
998 [label="mse = 0.0\nsamples = 1\nvalue = 4753.637"] ;
997 -> 998 ;
999 [label="mse = 0.0\nsamples = 1\nvalue = 4266.166"] ;
997 -> 999 ;
1000 [label="X[0] <= 32.5\nmse = 3276418.47\nsamples = 13\nvalue = 5708.244"] ;
990 -> 1000 ;
1001 [label="X[1] <= 37.163\nmse = 561121.47\nsamples = 6\nvalue = 4783.445"] ;
1000 -> 1001 ;
1002 [label="mse = 0.0\nsamples = 1\nvalue = 6334.344"] ;
1001 -> 1002 ;
1003 [label="X[0] <= 31.5\nmse = 96077.21\nsamples = 5\nvalue = 4473.266"] ;
1001 -> 1003 ;
1004 [label="X[2] <= 1.5\nmse = 86280.544\nsamples = 2\nvalue = 4169.47"] ;
1003 -> 1004 ;
1005 [label="mse = 0.0\nsamples = 1\nvalue = 3875.734"] ;
1004 -> 1005 ;
1006 [label="mse = -0.0\nsamples = 1\nvalue = 4463.205"] ;
1004 -> 1006 ;
1007 [label="X[1] <= 41.932\nmse = 61.678\nsamples = 3\nvalue = 4675.796"] ;
1003 -> 1007 ;
1008 [label="X[4] <= 1.0\nmse = 8.365\nsamples = 2\nvalue = 4670.5"] ;
1007 -> 1008 ;
1009 [label="mse = 0.0\nsamples = 1\nvalue = 4673.392"] ;
1008 -> 1009 ;
1010 [label="mse = 0.0\nsamples = 1\nvalue = 4667.608"] ;
1008 -> 1010 ;
1011 [label="mse = 0.0\nsamples = 1\nvalue = 4686.389"] ;
1007 -> 1011 ;
1012 [label="X[0] <= 33.5\nmse = 4242391.93\nsamples = 7\nvalue = 6500.929"] ;
1000 -> 1012 ;
1013 [label="X[3] <= 0.5\nmse = 5942037.015\nsamples = 3\nvalue = 7886.695"] ;
1012 -> 1013 ;
1014 [label="X[1] <= 40.92\nmse = 37755.521\nsamples = 2\nvalue = 6166.686"] ;
1013 -> 1014 ;
1015 [label="mse = 0.0\nsamples = 1\nvalue = 5972.378"] ;
1014 -> 1015 ;
1016 [label="mse = 0.0\nsamples = 1\nvalue = 6360.994"] ;
1014 -> 1016 ;
1017 [label="mse = 0.0\nsamples = 1\nvalue = 11326.715"] ;
1013 -> 1017 ;
1018 [label="X[3] <= 0.5\nmse = 447201.829\nsamples = 4\nvalue = 5461.605"] ;
1012 -> 1018 ;
1019 [label="X[4] <= 2.0\nmse = 10704.422\nsamples = 2\nvalue = 6092.986"] ;
1018 -> 1019 ;
1020 [label="mse = 0.0\nsamples = 1\nvalue = 6196.448"] ;
1019 -> 1020 ;
1021 [label="mse = 0.0\nsamples = 1\nvalue = 5989.524"] ;
1019 -> 1021 ;
1022 [label="X[4] <= 0.5\nmse = 86415.333\nsamples = 2\nvalue = 4830.224"] ;
1018 -> 1022 ;
1023 [label="mse = 0.0\nsamples = 1\nvalue = 5124.189"] ;
1022 -> 1023 ;
1024 [label="mse = -0.0\nsamples = 1\nvalue = 4536.259"] ;
1022 -> 1024 ;
1025 [label="X[2] <= 2.5\nmse = 188105085.674\nsamples = 28\nvalue = 14394.544"] ;
951 -> 1025 ;
1026 [label="X[0] <= 37.5\nmse = 135429215.467\nsamples = 26\nvalue = 12205.563"] ;
1025 -> 1026 ;
1027 [label="X[1] <= 36.025\nmse = 226843635.585\nsamples = 8\nvalue = 22553.007"] ;
1026 -> 1027 ;
1028 [label="X[4] <= 1.5\nmse = 10615.444\nsamples = 2\nvalue = 5733.489"] ;
1027 -> 1028 ;
1029 [label="mse = 0.0\nsamples = 1\nvalue = 5836.52"] ;
1028 -> 1029 ;
1030 [label="mse = 0.0\nsamples = 1\nvalue = 5630.458"] ;
1028 -> 1030 ;
1031 [label="X[1] <= 38.495\nmse = 176723000.935\nsamples = 6\nvalue = 28159.513"] ;
1027 -> 1031 ;
1032 [label="X[1] <= 36.43\nmse = 80684823.87\nsamples = 5\nvalue = 32838.95"] ;
1031 -> 1032 ;
1033 [label="mse = 0.0\nsamples = 1\nvalue = 19214.706"] ;
1032 -> 1033 ;
1034 [label="X[2] <= 1.5\nmse = 42849765.62\nsamples = 4\nvalue = 36245.011"] ;
1032 -> 1034 ;
1035 [label="X[1] <= 37.73\nmse = 80526.554\nsamples = 3\nvalue = 40021.667"] ;
1034 -> 1035 ;
1036 [label="X[0] <= 36.0\nmse = 2373.054\nsamples = 2\nvalue = 39822.99"] ;
1035 -> 1036 ;
1037 [label="mse = 0.0\nsamples = 1\nvalue = 39774.276"] ;
1036 -> 1037 ;
1038 [label="mse = 0.0\nsamples = 1\nvalue = 39871.704"] ;
1036 -> 1038 ;
1039 [label="mse = -0.0\nsamples = 1\nvalue = 40419.019"] ;
1035 -> 1039 ;
1040 [label="mse = -0.0\nsamples = 1\nvalue = 24915.046"] ;
1034 -> 1040 ;
1041 [label="mse = 0.0\nsamples = 1\nvalue = 4762.329"] ;
1031 -> 1041 ;
1042 [label="X[4] <= 2.5\nmse = 26064543.532\nsamples = 18\nvalue = 7606.699"] ;
1026 -> 1042 ;
1043 [label="X[0] <= 40.5\nmse = 413738.034\nsamples = 14\nvalue = 6240.067"] ;
1042 -> 1043 ;
1044 [label="X[2] <= 0.5\nmse = 167876.487\nsamples = 9\nvalue = 5847.016"] ;
1043 -> 1044 ;
1045 [label="X[1] <= 36.96\nmse = 39599.951\nsamples = 6\nvalue = 5596.181"] ;
1044 -> 1045 ;
1046 [label="mse = 0.0\nsamples = 1\nvalue = 5920.104"] ;
1045 -> 1046 ;
1047 [label="X[1] <= 41.745\nmse = 22337.733\nsamples = 5\nvalue = 5531.397"] ;
1045 -> 1047 ;
1048 [label="X[1] <= 40.92\nmse = 347.74\nsamples = 3\nvalue = 5412.449"] ;
1047 -> 1048 ;
1049 [label="X[1] <= 38.94\nmse = 2.829\nsamples = 2\nvalue = 5399.299"] ;
1048 -> 1049 ;
1050 [label="mse = 0.0\nsamples = 1\nvalue = 5397.617"] ;
1049 -> 1050 ;
1051 [label="mse = -0.0\nsamples = 1\nvalue = 5400.98"] ;
1049 -> 1051 ;
1052 [label="mse = -0.0\nsamples = 1\nvalue = 5438.749"] ;
1048 -> 1052 ;
1053 [label="X[1] <= 42.227\nmse = 2265.21\nsamples = 2\nvalue = 5709.819"] ;
1047 -> 1053 ;
1054 [label="mse = 0.0\nsamples = 1\nvalue = 5662.225"] ;
1053 -> 1054 ;
1055 [label="mse = 0.0\nsamples = 1\nvalue = 5757.413"] ;
1053 -> 1055 ;
1056 [label="X[0] <= 38.5\nmse = 46922.893\nsamples = 3\nvalue = 6348.684"] ;
1044 -> 1056 ;
1057 [label="mse = 0.0\nsamples = 1\nvalue = 6079.672"] ;
1056 -> 1057 ;
1058 [label="X[1] <= 43.33\nmse = 16108.559\nsamples = 2\nvalue = 6483.19"] ;
1056 -> 1058 ;
1059 [label="mse = 0.0\nsamples = 1\nvalue = 6610.11"] ;
1058 -> 1059 ;
1060 [label="mse = 0.0\nsamples = 1\nvalue = 6356.271"] ;
1058 -> 1060 ;
1061 [label="X[2] <= 1.5\nmse = 77660.555\nsamples = 5\nvalue = 6947.561"] ;
1043 -> 1061 ;
1062 [label="X[1] <= 36.99\nmse = 23614.653\nsamples = 2\nvalue = 6627.684"] ;
1061 -> 1062 ;
1063 [label="mse = 0.0\nsamples = 1\nvalue = 6781.354"] ;
1062 -> 1063 ;
1064 [label="mse = -0.0\nsamples = 1\nvalue = 6474.013"] ;
1062 -> 1064 ;
1065 [label="X[1] <= 36.575\nmse = 0.729\nsamples = 3\nvalue = 7160.812"] ;
1061 -> 1065 ;
1066 [label="X[1] <= 35.885\nmse = 0.014\nsamples = 2\nvalue = 7160.212"] ;
1065 -> 1066 ;
1067 [label="mse = 0.0\nsamples = 1\nvalue = 7160.094"] ;
1066 -> 1067 ;
1068 [label="mse = 0.0\nsamples = 1\nvalue = 7160.33"] ;
1066 -> 1068 ;
1069 [label="mse = -0.0\nsamples = 1\nvalue = 7162.012"] ;
1065 -> 1069 ;
1070 [label="X[1] <= 40.992\nmse = 86426374.178\nsamples = 4\nvalue = 12389.909"] ;
1042 -> 1070 ;
1071 [label="X[0] <= 39.5\nmse = 219185.468\nsamples = 3\nvalue = 7027.634"] ;
1070 -> 1071 ;
1072 [label="mse = 0.0\nsamples = 1\nvalue = 6373.557"] ;
1071 -> 1072 ;
1073 [label="X[3] <= 0.5\nmse = 7915.71\nsamples = 2\nvalue = 7354.673"] ;
1071 -> 1073 ;
1074 [label="mse = 0.0\nsamples = 1\nvalue = 7443.643"] ;
1073 -> 1074 ;
1075 [label="mse = 0.0\nsamples = 1\nvalue = 7265.702"] ;
1073 -> 1075 ;
1076 [label="mse = -0.0\nsamples = 1\nvalue = 28476.735"] ;
1070 -> 1076 ;
1077 [label="X[4] <= 1.0\nmse = 813687.843\nsamples = 2\nvalue = 42851.291"] ;
1025 -> 1077 ;
1078 [label="mse = 0.0\nsamples = 1\nvalue = 41949.244"] ;
1077 -> 1078 ;
1079 [label="mse = -0.0\nsamples = 1\nvalue = 43753.337"] ;
1077 -> 1079 ;
1080 [label="mse = -0.0\nsamples = 1\nvalue = 46113.511"] ;
950 -> 1080 ;
1081 [label="mse = -0.0\nsamples = 1\nvalue = 44501.398"] ;
569 -> 1081 ;
1082 [label="X[1] <= 30.33\nmse = 146614363.193\nsamples = 394\nvalue = 17266.854"] ;
0 -> 1082 [labeldistance=2.5, labelangle=-45, headlabel="False"] ;
1083 [label="X[0] <= 60.5\nmse = 53505308.245\nsamples = 175\nvalue = 14498.069"] ;
1082 -> 1083 ;
1084 [label="X[1] <= 22.847\nmse = 49480616.708\nsamples = 152\nvalue = 13726.752"] ;
1083 -> 1084 ;
1085 [label="X[0] <= 43.5\nmse = 12705503.867\nsamples = 22\nvalue = 11091.186"] ;
1084 -> 1085 ;
1086 [label="X[3] <= 0.5\nmse = 265388.203\nsamples = 2\nvalue = 19282.896"] ;
1085 -> 1086 ;
1087 [label="mse = 0.0\nsamples = 1\nvalue = 19798.055"] ;
1086 -> 1087 ;
1088 [label="mse = 0.0\nsamples = 1\nvalue = 18767.738"] ;
1086 -> 1088 ;
1089 [label="X[3] <= 0.5\nmse = 6568062.317\nsamples = 20\nvalue = 10272.015"] ;
1085 -> 1089 ;
1090 [label="X[0] <= 45.0\nmse = 10465650.411\nsamples = 9\nvalue = 11333.378"] ;
1089 -> 1090 ;
1091 [label="mse = 0.0\nsamples = 1\nvalue = 19594.81"] ;
1090 -> 1091 ;
1092 [label="X[0] <= 52.5\nmse = 2176024.982\nsamples = 8\nvalue = 10300.699"] ;
1090 -> 1092 ;
1093 [label="X[1] <= 22.705\nmse = 286002.386\nsamples = 5\nvalue = 9213.435"] ;
1092 -> 1093 ;
1094 [label="X[1] <= 21.43\nmse = 78792.268\nsamples = 4\nvalue = 9449.533"] ;
1093 -> 1094 ;
1095 [label="X[1] <= 20.625\nmse = 34.038\nsamples = 2\nvalue = 9188.004"] ;
1094 -> 1095 ;
1096 [label="mse = 0.0\nsamples = 1\nvalue = 9193.838"] ;
1095 -> 1096 ;
1097 [label="mse = -0.0\nsamples = 1\nvalue = 9182.17"] ;
1095 -> 1097 ;
1098 [label="X[4] <= 1.5\nmse = 20756.237\nsamples = 2\nvalue = 9711.061"] ;
1094 -> 1098 ;
1099 [label="mse = 0.0\nsamples = 1\nvalue = 9855.131"] ;
1098 -> 1099 ;
1100 [label="mse = -0.0\nsamples = 1\nvalue = 9566.991"] ;
1098 -> 1100 ;
1101 [label="mse = -0.0\nsamples = 1\nvalue = 8269.044"] ;
1093 -> 1101 ;
1102 [label="X[2] <= 1.5\nmse = 72089.598\nsamples = 3\nvalue = 12112.807"] ;
1092 -> 1102 ;
1103 [label="X[0] <= 57.5\nmse = 9555.493\nsamples = 2\nvalue = 11931.535"] ;
1102 -> 1103 ;
1104 [label="mse = 0.0\nsamples = 1\nvalue = 12029.287"] ;
1103 -> 1104 ;
1105 [label="mse = 0.0\nsamples = 1\nvalue = 11833.782"] ;
1103 -> 1105 ;
1106 [label="mse = -0.0\nsamples = 1\nvalue = 12475.351"] ;
1102 -> 1106 ;
1107 [label="X[0] <= 52.5\nmse = 1703352.294\nsamples = 11\nvalue = 9403.626"] ;
1089 -> 1107 ;
1108 [label="X[4] <= 2.5\nmse = 374596.964\nsamples = 7\nvalue = 8503.18"] ;
1107 -> 1108 ;
1109 [label="X[0] <= 50.0\nmse = 121930.38\nsamples = 5\nvalue = 8774.28"] ;
1108 -> 1109 ;
1110 [label="X[2] <= 2.5\nmse = 44718.131\nsamples = 4\nvalue = 8627.519"] ;
1109 -> 1110 ;
1111 [label="X[0] <= 45.5\nmse = 28737.114\nsamples = 3\nvalue = 8539.645"] ;
1110 -> 1111 ;
1112 [label="mse = 0.0\nsamples = 1\nvalue = 8302.536"] ;
1111 -> 1112 ;
1113 [label="X[2] <= 0.5\nmse = 939.967\nsamples = 2\nvalue = 8658.2"] ;
1111 -> 1113 ;
1114 [label="mse = 0.0\nsamples = 1\nvalue = 8688.859"] ;
1113 -> 1114 ;
1115 [label="mse = 0.0\nsamples = 1\nvalue = 8627.541"] ;
1113 -> 1115 ;
1116 [label="mse = -0.0\nsamples = 1\nvalue = 8891.14"] ;
1110 -> 1116 ;
1117 [label="mse = -0.0\nsamples = 1\nvalue = 9361.327"] ;
1109 -> 1117 ;
1118 [label="X[1] <= 20.472\nmse = 363176.808\nsamples = 2\nvalue = 7825.428"] ;
1108 -> 1118 ;
1119 [label="mse = 0.0\nsamples = 1\nvalue = 8428.069"] ;
1118 -> 1119 ;
1120 [label="mse = -0.0\nsamples = 1\nvalue = 7222.786"] ;
1118 -> 1120 ;
1121 [label="X[1] <= 19.672\nmse = 126679.169\nsamples = 4\nvalue = 10979.408"] ;
1107 -> 1121 ;
1122 [label="mse = 0.0\nsamples = 1\nvalue = 11534.873"] ;
1121 -> 1122 ;
1123 [label="X[4] <= 0.5\nmse = 31776.179\nsamples = 3\nvalue = 10794.253"] ;
1121 -> 1123 ;
1124 [label="mse = 0.0\nsamples = 1\nvalue = 11013.712"] ;
1123 -> 1124 ;
1125 [label="X[1] <= 21.8\nmse = 11542.602\nsamples = 2\nvalue = 10684.524"] ;
1123 -> 1125 ;
1126 [label="mse = 0.0\nsamples = 1\nvalue = 10791.96"] ;
1125 -> 1126 ;
1127 [label="mse = 0.0\nsamples = 1\nvalue = 10577.087"] ;
1125 -> 1127 ;
1128 [label="X[1] <= 23.038\nmse = 54329652.082\nsamples = 130\nvalue = 14172.771"] ;
1084 -> 1128 ;
1129 [label="mse = 0.0\nsamples = 1\nvalue = 35069.375"] ;
1128 -> 1129 ;
1130 [label="X[0] <= 46.5\nmse = 51339548.099\nsamples = 129\nvalue = 14010.782"] ;
1128 -> 1130 ;
1131 [label="X[0] <= 43.5\nmse = 51226627.703\nsamples = 32\nvalue = 11150.839"] ;
1130 -> 1131 ;
1132 [label="X[1] <= 28.85\nmse = 105603567.939\nsamples = 9\nvalue = 14585.233"] ;
1131 -> 1132 ;
1133 [label="X[1] <= 27.25\nmse = 115140593.751\nsamples = 7\nvalue = 16725.761"] ;
1132 -> 1133 ;
1134 [label="X[2] <= 1.0\nmse = 47729557.407\nsamples = 6\nvalue = 13208.434"] ;
1133 -> 1134 ;
1135 [label="X[1] <= 24.14\nmse = 193012.888\nsamples = 3\nvalue = 6804.284"] ;
1134 -> 1135 ;
1136 [label="mse = 0.0\nsamples = 1\nvalue = 6250.435"] ;
1135 -> 1136 ;
1137 [label="X[1] <= 25.555\nmse = 59457.824\nsamples = 2\nvalue = 7081.208"] ;
1135 -> 1137 ;
1138 [label="mse = 0.0\nsamples = 1\nvalue = 7325.048"] ;
1137 -> 1138 ;
1139 [label="mse = -0.0\nsamples = 1\nvalue = 6837.369"] ;
1137 -> 1139 ;
1140 [label="X[2] <= 3.5\nmse = 13239834.953\nsamples = 3\nvalue = 19612.583"] ;
1134 -> 1140 ;
1141 [label="X[4] <= 2.0\nmse = 89335.232\nsamples = 2\nvalue = 22179.71"] ;
1140 -> 1141 ;
1142 [label="mse = 0.0\nsamples = 1\nvalue = 22478.6"] ;
1141 -> 1142 ;
1143 [label="mse = -0.0\nsamples = 1\nvalue = 21880.82"] ;
1141 -> 1143 ;
1144 [label="mse = -0.0\nsamples = 1\nvalue = 14478.33"] ;
1140 -> 1144 ;
1145 [label="mse = -0.0\nsamples = 1\nvalue = 37829.724"] ;
1133 -> 1145 ;
1146 [label="X[3] <= 0.5\nmse = 59712.298\nsamples = 2\nvalue = 7093.387"] ;
1132 -> 1146 ;
1147 [label="mse = 0.0\nsamples = 1\nvalue = 7337.748"] ;
1146 -> 1147 ;
1148 [label="mse = -0.0\nsamples = 1\nvalue = 6849.026"] ;
1146 -> 1148 ;
1149 [label="X[4] <= 2.5\nmse = 23527186.118\nsamples = 23\nvalue = 9806.946"] ;
1131 -> 1149 ;
1150 [label="X[2] <= 2.5\nmse = 539807.284\nsamples = 17\nvalue = 8463.629"] ;
1149 -> 1150 ;
1151 [label="X[0] <= 44.5\nmse = 179338.151\nsamples = 13\nvalue = 8144.614"] ;
1150 -> 1151 ;
1152 [label="X[1] <= 24.49\nmse = 51839.797\nsamples = 5\nvalue = 7762.619"] ;
1151 -> 1152 ;
1153 [label="mse = 0.0\nsamples = 1\nvalue = 8211.1"] ;
1152 -> 1153 ;
1154 [label="X[3] <= 0.5\nmse = 1944.949\nsamples = 4\nvalue = 7650.499"] ;
1152 -> 1154 ;
1155 [label="X[1] <= 26.65\nmse = 2.1\nsamples = 3\nvalue = 7625.047"] ;
1154 -> 1155 ;
1156 [label="X[1] <= 25.4\nmse = 0.309\nsamples = 2\nvalue = 7624.074"] ;
1155 -> 1156 ;
1157 [label="mse = 0.0\nsamples = 1\nvalue = 7623.518"] ;
1156 -> 1157 ;
1158 [label="mse = -0.0\nsamples = 1\nvalue = 7624.63"] ;
1156 -> 1158 ;
1159 [label="mse = -0.0\nsamples = 1\nvalue = 7626.993"] ;
1155 -> 1159 ;
1160 [label="mse = 0.0\nsamples = 1\nvalue = 7726.854"] ;
1154 -> 1160 ;
1161 [label="X[2] <= 1.5\nmse = 110824.259\nsamples = 8\nvalue = 8383.361"] ;
1151 -> 1161 ;
1162 [label="X[3] <= 0.5\nmse = 60154.675\nsamples = 2\nvalue = 7987.374"] ;
1161 -> 1162 ;
1163 [label="mse = 0.0\nsamples = 1\nvalue = 8232.639"] ;
1162 -> 1163 ;
1164 [label="mse = -0.0\nsamples = 1\nvalue = 7742.11"] ;
1162 -> 1164 ;
1165 [label="X[1] <= 28.8\nmse = 58022.698\nsamples = 6\nvalue = 8515.357"] ;
1161 -> 1165 ;
1166 [label="X[1] <= 28.65\nmse = 46871.401\nsamples = 5\nvalue = 8453.773"] ;
1165 -> 1166 ;
1167 [label="X[4] <= 1.0\nmse = 1930.028\nsamples = 4\nvalue = 8560.224"] ;
1166 -> 1167 ;
1168 [label="X[1] <= 28.215\nmse = 0.286\nsamples = 2\nvalue = 8516.294"] ;
1167 -> 1168 ;
1169 [label="mse = 0.0\nsamples = 1\nvalue = 8515.759"] ;
1168 -> 1169 ;
1170 [label="mse = -0.0\nsamples = 1\nvalue = 8516.829"] ;
1168 -> 1170 ;
1171 [label="X[1] <= 23.797\nmse = 0.109\nsamples = 2\nvalue = 8604.154"] ;
1167 -> 1171 ;
1172 [label="mse = 0.0\nsamples = 1\nvalue = 8603.823"] ;
1171 -> 1172 ;
1173 [label="mse = -0.0\nsamples = 1\nvalue = 8604.484"] ;
1171 -> 1173 ;
1174 [label="mse = 0.0\nsamples = 1\nvalue = 8027.968"] ;
1166 -> 1174 ;
1175 [label="mse = -0.0\nsamples = 1\nvalue = 8823.279"] ;
1165 -> 1175 ;
1176 [label="X[1] <= 26.65\nmse = 305627.594\nsamples = 4\nvalue = 9500.427"] ;
1150 -> 1176 ;
1177 [label="X[1] <= 25.297\nmse = 59303.358\nsamples = 3\nvalue = 9795.47"] ;
1176 -> 1177 ;
1178 [label="X[2] <= 4.0\nmse = 20778.192\nsamples = 2\nvalue = 9644.719"] ;
1177 -> 1178 ;
1179 [label="mse = 0.0\nsamples = 1\nvalue = 9500.573"] ;
1178 -> 1179 ;
1180 [label="mse = -0.0\nsamples = 1\nvalue = 9788.866"] ;
1178 -> 1180 ;
1181 [label="mse = -0.0\nsamples = 1\nvalue = 10096.97"] ;
1177 -> 1181 ;
1182 [label="mse = 0.0\nsamples = 1\nvalue = 8615.3"] ;
1176 -> 1182 ;
1183 [label="X[0] <= 44.5\nmse = 69059214.088\nsamples = 6\nvalue = 13613.011"] ;
1149 -> 1183 ;
1184 [label="X[3] <= 0.5\nmse = 2121.195\nsamples = 3\nvalue = 7452.899"] ;
1183 -> 1184 ;
1185 [label="X[1] <= 27.028\nmse = 0.737\nsamples = 2\nvalue = 7420.336"] ;
1184 -> 1185 ;
1186 [label="mse = 0.0\nsamples = 1\nvalue = 7419.478"] ;
1185 -> 1186 ;
1187 [label="mse = -0.0\nsamples = 1\nvalue = 7421.195"] ;
1185 -> 1187 ;
1188 [label="mse = 0.0\nsamples = 1\nvalue = 7518.025"] ;
1184 -> 1188 ;
1189 [label="X[2] <= 2.0\nmse = 62222363.497\nsamples = 3\nvalue = 19773.122"] ;
1183 -> 1189 ;
1190 [label="X[0] <= 45.5\nmse = 11098577.092\nsamples = 2\nvalue = 25008.736"] ;
1189 -> 1190 ;
1191 [label="mse = 0.0\nsamples = 1\nvalue = 28340.189"] ;
1190 -> 1191 ;
1192 [label="mse = 0.0\nsamples = 1\nvalue = 21677.283"] ;
1190 -> 1192 ;
1193 [label="mse = 0.0\nsamples = 1\nvalue = 9301.894"] ;
1189 -> 1193 ;
1194 [label="X[1] <= 26.89\nmse = 47788317.984\nsamples = 97\nvalue = 14954.268"] ;
1130 -> 1194 ;
1195 [label="X[2] <= 0.5\nmse = 56625331.548\nsamples = 45\nvalue = 16555.07"] ;
1194 -> 1195 ;
1196 [label="X[0] <= 59.5\nmse = 29467009.986\nsamples = 19\nvalue = 12709.089"] ;
1195 -> 1196 ;
1197 [label="X[4] <= 0.5\nmse = 16578281.813\nsamples = 17\nvalue = 11766.232"] ;
1196 -> 1197 ;
1198 [label="X[1] <= 25.08\nmse = 66227026.835\nsamples = 3\nvalue = 15767.987"] ;
1197 -> 1198 ;
1199 [label="mse = 0.0\nsamples = 1\nvalue = 27117.994"] ;
1198 -> 1199 ;
1200 [label="X[0] <= 54.5\nmse = 2723542.9\nsamples = 2\nvalue = 10092.983"] ;
1198 -> 1200 ;
1201 [label="mse = 0.0\nsamples = 1\nvalue = 8442.667"] ;
1200 -> 1201 ;
1202 [label="mse = 0.0\nsamples = 1\nvalue = 11743.299"] ;
1200 -> 1202 ;
1203 [label="X[0] <= 55.0\nmse = 1772346.752\nsamples = 14\nvalue = 10908.713"] ;
1197 -> 1203 ;
1204 [label="X[1] <= 24.177\nmse = 625996.72\nsamples = 5\nvalue = 9353.008"] ;
1203 -> 1204 ;
1205 [label="X[0] <= 53.0\nmse = 12672.506\nsamples = 2\nvalue = 10310.344"] ;
1204 -> 1205 ;
1206 [label="mse = 0.0\nsamples = 1\nvalue = 10197.772"] ;
1205 -> 1206 ;
1207 [label="mse = 0.0\nsamples = 1\nvalue = 10422.917"] ;
1205 -> 1207 ;
1208 [label="X[0] <= 48.5\nmse = 16553.749\nsamples = 3\nvalue = 8714.784"] ;
1204 -> 1208 ;
1209 [label="mse = 0.0\nsamples = 1\nvalue = 8534.672"] ;
1208 -> 1209 ;
1210 [label="X[0] <= 50.5\nmse = 500.437\nsamples = 2\nvalue = 8804.839"] ;
1208 -> 1210 ;
1211 [label="mse = 0.0\nsamples = 1\nvalue = 8827.21"] ;
1210 -> 1211 ;
1212 [label="mse = 0.0\nsamples = 1\nvalue = 8782.469"] ;
1210 -> 1212 ;
1213 [label="X[0] <= 58.5\nmse = 317660.352\nsamples = 9\nvalue = 11772.994"] ;
1203 -> 1213 ;
1214 [label="X[0] <= 57.5\nmse = 119006.966\nsamples = 6\nvalue = 11448.762"] ;
1213 -> 1214 ;
1215 [label="X[4] <= 2.5\nmse = 41164.887\nsamples = 3\nvalue = 11192.923"] ;
1214 -> 1215 ;
1216 [label="X[0] <= 56.5\nmse = 10618.03\nsamples = 2\nvalue = 11062.374"] ;
1215 -> 1216 ;
1217 [label="mse = 0.0\nsamples = 1\nvalue = 11165.418"] ;
1216 -> 1217 ;
1218 [label="mse = 0.0\nsamples = 1\nvalue = 10959.33"] ;
1216 -> 1218 ;
1219 [label="mse = -0.0\nsamples = 1\nvalue = 11454.022"] ;
1215 -> 1219 ;
1220 [label="X[1] <= 24.237\nmse = 65941.669\nsamples = 3\nvalue = 11704.601"] ;
1214 -> 1220 ;
1221 [label="mse = 0.0\nsamples = 1\nvalue = 11345.519"] ;
1220 -> 1221 ;
1222 [label="X[1] <= 25.188\nmse = 2207.367\nsamples = 2\nvalue = 11884.143"] ;
1220 -> 1222 ;
1223 [label="mse = 0.0\nsamples = 1\nvalue = 11931.125"] ;
1222 -> 1223 ;
1224 [label="mse = -0.0\nsamples = 1\nvalue = 11837.16"] ;
1222 -> 1224 ;
1225 [label="X[3] <= 0.5\nmse = 84209.37\nsamples = 3\nvalue = 12421.458"] ;
1213 -> 1225 ;
